
\data\
ngram 1=801
ngram 2=1177

\1-grams:
-1.389598	</s>
-99	<s>	-0.3116638
-3.002382	АВАНС	-0.3003816
-3.002382	АД	-0.2920841
-3.002382	АЛЕКСЕЙ	-0.3005978
-3.002382	АМЕРИКАНСКОЙ	-0.3005978
-3.002382	АПЕЛЬСИНОВОГО	-0.3003816
-2.604442	АППАРАТ	-0.3655947
-3.002382	АППАРАТЫ	-0.3005978
-3.002382	АРЧИБАЛЬД	-0.3003816
-3.002382	АСТРОНОМОВ	-0.3005978
-3.002382	АТЛАНТИЧЕСКОМ	-0.3005978
-3.002382	АФРИКИ	-0.2900955
-3.002382	АХ	-0.3005978
-3.002382	БАГРОВЫЕ	-0.3005978
-3.002382	БАКИ	-0.3005978
-3.002382	БАЛКИ	-0.3003816
-3.002382	БАРЫШНИ	-0.2999488
-3.002382	БЕЖАЛИ	-0.2986479
-2.701352	БЕЗ	-0.2997323
-3.002382	БЕЗВОЗДУШНОМ	-0.3003816
-3.002382	БЕЗДНЫ	-0.298865
-3.002382	БЕЗНАДЁЖНОЕ	-0.3005978
-3.002382	БЕЗУМНОМ	-0.3005978
-3.002382	БЕРЕГА	-0.2999488
-3.002382	БЕРЛИН	-0.2829501
-3.002382	БИТЬСЯ	-0.2900955
-3.002382	БЛЕДНЫЙ	-0.3003816
-3.002382	БЛЕСНУЛО	-0.3005978
-3.002382	БЛИЖАЙШЕЙ	-0.3005978
-3.002382	БОЖЕ	-0.3003816
-2.826291	БОЛЕЕ	-0.3001653
-3.002382	БОЛЬШУЮ	-0.3005978
-3.002382	БОСУЮ	-0.3005978
-3.002382	БРАТЬЯ	-0.3005978
-3.002382	БУБНИЛИ	-0.3005978
-3.002382	БУДЕТ	-0.299082
-3.002382	БУРОМУ	-0.3005978
-3.002382	БУРЬ	-0.2900955
-3.002382	БУФЕР	-0.2829501
-2.525261	БЫЛ	-0.2973431
-2.458314	БЫЛА	-0.3400406
-3.002382	БЫЛИ	-0.3005978
-2.604442	БЫЛО	-0.2885425
-2.826291	БЫТЬ	-0.3001653
-2.826291	БЬЁТСЯ	-0.2999488
-1.604442	В	-0.2873397
-3.002382	ВЁРСТ	-0.3003816
-3.002382	ВАЖНЕЕ	-0.3005978
-3.002382	ВАЖНЕЙШИЕ	-0.3005978
-3.002382	ВАМ	-0.2953784
-3.002382	ВАРЁНУЮ	-0.3005978
-3.002382	ВАШУ	-0.3005978
-3.002382	ВГЛЯДЫВАЛСЯ	-0.2900955
-3.002382	ВЕДЁРКЕ	-0.3005978
-3.002382	ВЕДЬ	-0.3005978
-3.002382	ВЕКИ	-0.2829501
-2.826291	ВЕРЁВОЧКИ	-0.2975608
-3.002382	ВЕСЁЛАЯ	-0.3005978
-3.002382	ВЕСЁЛЫМИ	-0.3005978
-3.002382	ВЕСТИБЮЛЬ	-0.2920841
-3.002382	ВЕСЬ	-0.3003816
-3.002382	ВЕТЕР	-0.2995156
-3.002382	ВЕЧЕРУ	-0.3003816
-3.002382	ВЕЧНОЙ	-0.3005978
-3.002382	ВЗГЛЯДЫ	-0.3005978
-3.002382	ВЗЛОХМАЧЕННАЯ	-0.3003816
-3.002382	ВЗОШЁЛ	-0.2953784
-2.826291	ВИДЕТЬ	-0.3001653
-3.002382	ВИДИМО	-0.2999488
-2.826291	ВИДНА	-0.299082
-3.002382	ВИДНЫ	-0.3005978
-3.002382	ВИСКИ	-0.3003816
-3.002382	ВКРАТЦЕ	-0.3005978
-3.002382	ВЛЕТИТ	-0.2900955
-3.002382	ВНУТРЕННОСТЬ	-0.2986479
-2.826291	ВНУТРИ	-0.2995156
-3.002382	ВНУТРЬ	-0.3003816
-2.826291	ВО	-0.3001653
-3.002382	ВОДЯ	-0.2995156
-3.002382	ВОЗДУХ	-0.2997323
-3.002382	ВОЗМОЖНОМ	-0.3005978
-3.002382	ВОЛНИСТЫХ	-0.3005978
-3.002382	ВОЛОС	-0.3001653
-3.002382	ВОПРОС	-0.3005978
-2.826291	ВОРОНА	-0.2824996
-3.002382	ВОРОТ	-0.3005978
-3.002382	ВОСЕМЬДЕСЯТ	-0.2829501
-3.002382	ВОСТОКУ	-0.2995156
-3.002382	ВОСЬМИ	-0.297996
-3.002382	ВОТ	-0.2999488
-3.002382	ВОШЛИ	-0.2900955
-3.002382	ВПЕРЁД	-0.3005978
-3.002382	ВРЕМЯ	-0.3003816
-3.002382	ВСЁМ	-0.3005978
-3.002382	ВСЕ	-0.3005978
-3.002382	ВСЕГО	-0.2900955
-3.002382	ВСЕЛЕННОЙ	-0.2829501
-3.002382	ВСПЫХНУЛ	-0.3005978
-3.002382	ВТОРОГО	-0.3005978
-3.002382	ВТОРОЙ	-0.3005978
-3.002382	ВТЯНУЛИ	-0.2997323
-3.002382	ВХОДИЛ	-0.3005978
-3.002382	ВЫБЕГАЛИ	-0.3005978
-3.002382	ВЫГЛЯДЫВАЛА	-0.2953784
-3.002382	ВЫДАТЬ	-0.3005978
-3.002382	ВЫКЛЮЧИЛ	-0.3005978
-3.002382	ВЫСОКУЮ	-0.3005978
-3.002382	ВЫСОТЫ	-0.2920841
-3.002382	ВЫСОХШИЕ	-0.3005978
-3.002382	ВЫТАЩИЛ	-0.3005978
-3.002382	ВЫТЯГИВАЯ	-0.3003816
-3.002382	ВЯЗЛИ	-0.2995156
-3.002382	ГАЗЕТЫ	-0.3005978
-3.002382	ГВОЗДИКАМИ	-0.3005978
-2.701352	ГДЕ	-0.2984307
-3.002382	ГЕОМЕТРИЧЕСКИ	-0.3005978
-3.002382	ГЛАДКИХ	-0.3005978
-3.002382	ГЛАЗ	-0.3003816
-3.002382	ГЛАЗА	-0.3005978
-2.826291	ГЛАЗКОВ	-0.2824996
-3.002382	ГЛУБОКИЕ	-0.3003816
-3.002382	ГЛЯДЕЛ	-0.2953784
-3.002382	ГЛЯДЕЛИ	-0.2953784
-3.002382	ГНЕВНО	-0.2920841
-3.002382	ГОВОР	-0.3001653
-3.002382	ГОЛОВА	-0.299082
-3.002382	ГОЛОВЕ	-0.299082
-3.002382	ГОЛОВОЙ	-0.3005978
-3.002382	ГОРЕЛА	-0.3005978
-3.002382	ГОРЕЛОМУ	-0.3005978
-3.002382	ГОРОДА	-0.2900955
-3.002382	ГОРОДЕ	-0.2829501
-3.002382	ГОРОШКОМ	-0.2920841
-3.002382	ГРУДЬ	-0.3005978
-3.002382	ГРУППЫ	-0.2829501
-3.002382	ГРЯЗНОЙ	-0.3005978
-3.002382	ГУБАМИ	-0.2829501
-2.604442	ГУСЕВ	-0.2903169
-3.002382	ГУСЕВУ	-0.3005978
-3.002382	ГУЩЕ	-0.3005978
-3.002382	ДА	-0.3003816
-2.826291	ДАВНО	-0.2822742
-3.002382	ДАЖЕ	-0.3005978
-3.002382	ДВЕ	-0.3005978
-3.002382	ДВЕНАДЦАТИ	-0.2999488
-3.002382	ДВЕРЦА	-0.2900955
-3.002382	ДВЕРЬ	-0.2900955
-3.002382	ДВЕСТИ	-0.3005978
-3.002382	ДВИГАТЕЛЬ	-0.2829501
-2.826291	ДВИЖЕНИЯ	-0.291643
-3.002382	ДВИЖУЩЕГО	-0.3005978
-3.002382	ДВОЙНАЯ	-0.3005978
-3.002382	ДЕЛА	-0.3005978
-3.002382	ДЕНЬГАМИ	-0.2920841
-3.002382	ДЕНЬГИ	-0.297996
-3.002382	ДЕРЕВНЮ	-0.3005978
-3.002382	ДЕРЕВЬЕВ	-0.298865
-3.002382	ДЕРЕВЬЯМ	-0.3005978
-3.002382	ДЕРЖАЛ	-0.3005978
-3.002382	ДЛИННЫЕ	-0.3005978
-2.826291	ДЛЯ	-0.3001653
-2.604442	ДО	-0.299082
-3.002382	ДОЛГО	-0.3005978
-2.826291	ДОМА	-0.2986479
-3.002382	ДОМЕ	-0.2829501
-3.002382	ДОМОВ	-0.3003816
-3.002382	ДОСКАМИ	-0.3005978
-3.002382	ДРУГОМУ	-0.3005978
-3.002382	ДУМАЛИ	-0.3001653
-3.002382	ДЫШАЛОСЬ	-0.3003816
-2.826291	ЕЁ	-0.2896523
-2.525261	ЕГО	-0.2793329
-3.002382	ЕДВА	-0.2997323
-3.002382	ЕДИНСТВЕННЫЕ	-0.3005978
-2.826291	ЕМУ	-0.3001653
-3.002382	ЕСТЬ	-0.3005978
-3.002382	ЕХАТЬ	-0.3005978
-3.002382	ЖЁЛТОЙ	-0.3005978
-3.002382	ЖАДНО	-0.3005978
-3.002382	ЖАЛОВАНЬЕ	-0.3005978
-3.002382	ЖДАНОВСКУЮ	-0.3005978
-3.002382	ЖДАТЬ	-0.3003816
-2.604442	ЖЕ	-0.299082
-3.002382	ЖЕНЩИНА	-0.297996
-3.002382	ЖЕНЩИНУ	-0.2900955
-3.002382	ЖЕНЩИНЫ	-0.297996
-3.002382	ЖЕСТЯНОМ	-0.3005978
-3.002382	ЖИВОНОСНОГО	-0.3005978
-3.002382	ЖИВОТНЫЕ	-0.3005978
-3.002382	ЖИЛИ	-0.2900955
-2.701352	ЗА	-0.2995156
-3.002382	ЗАБРАННЫЕ	-0.3005978
-3.002382	ЗАБРОШЕНА	-0.2829501
-3.002382	ЗАБРОШЕННОМ	-0.3005978
-3.002382	ЗАВАЛЕННОМ	-0.3005978
-3.002382	ЗАВЕЛА	-0.3005978
-2.826291	ЗАВТРА	-0.2824996
-3.002382	ЗАКАТА	-0.2920841
-3.002382	ЗАКОЛОЧЕННЫЕ	-0.3005978
-3.002382	ЗАКРИЧАЛ	-0.298865
-3.002382	ЗАКРЫТЫЕ	-0.3005978
-3.002382	ЗАЛУ	-0.2829501
-3.002382	ЗАНОГУ	-0.3005978
-3.002382	ЗАПАД	-0.2995156
-3.002382	ЗАПАДУ	-0.2920841
-3.002382	ЗАРАБАТЫВАЮ	-0.2829501
-3.002382	ЗАРОСЛИ	-0.3005978
-3.002382	ЗАШАГАЛ	-0.2995156
-3.002382	ЗВЁЗД	-0.2829501
-3.002382	ЗВЁЗДНУЮ	-0.3005978
-3.002382	ЗДЕСЬ	-0.3005978
-3.002382	ЗЕЛЕНЬЮ	-0.2920841
-3.002382	ЗЕМЛЕ	-0.3001653
-3.002382	ЗЕМЛИ	-0.2829501
-3.002382	ЗЕМЛЮ	-0.2953784
-3.002382	ЗЕМЛЯ	-0.3005978
-3.002382	ЗЕМНУЮ	-0.3005978
-3.002382	ЗОВЁТ	-0.3005978
-3.002382	ЗОЛОТО	-0.2829501
-3.002382	ЗРЕЛИЩА	-0.3005978
-3.002382	ЗУБАМИ	-0.2999488
-3.002382	ЗУБАХ	-0.2997323
-3.002382	ЗУБЧАТЫМ	-0.3005978
-1.690628	И	-0.2729293
-3.002382	ИВАНОВИЧ	-0.3005978
-3.002382	ИДТИ	-0.2999488
-2.262019	ИЗ	-0.3188595
-3.002382	ИЛИ	-0.3005978
-3.002382	ИМЕННО	-0.3005978
-3.002382	ИНЖЕНЕРА	-0.3005978
-3.002382	ИНСТРУМЕНТОВ	-0.2920841
-2.826291	ИНЫЕ	-0.3001653
-3.002382	ИСКАТЕЛЕМ	-0.3001653
-3.002382	ИСКОРКОЙ	-0.2829501
-3.002382	ИСТРЕБИТЬ	-0.2829501
-3.002382	ИХ	-0.3005978
-2.34917	К	-0.2975608
-3.002382	КАЗАЛИСЬ	-0.3005978
-2.826291	КАЗАЛОСЬ	-0.2982134
-2.826291	КАК	-0.2995156
-2.826291	КАКИЕ	-0.2995156
-3.002382	КАМЕННЫХ	-0.3005978
-2.826291	КАНАЛЫ	-0.3001653
-3.002382	КАРИЕ	-0.2920841
-3.002382	КАРТОШКУ	-0.3005978
-3.002382	КАТЕЙ	-0.3005978
-3.002382	КАТИ	-0.298865
-3.002382	КАТЮШИНОЙ	-0.3005978
-3.002382	КАТЯ	-0.2829501
-3.002382	КВАДРАТНЫЕ	-0.3005978
-3.002382	КВАРТИРУ	-0.3001653
-3.002382	КИВНУЛ	-0.3003816
-3.002382	КИДАЛИСЬ	-0.2900955
-3.002382	КИНУЛСЯ	-0.299082
-3.002382	КИРПИЧНО	-0.3005978
-3.002382	КИСЛОРОДНЫЕ	-0.3005978
-3.002382	КЛЁПКОЙ	-0.3005978
-3.002382	КЛАДУ	-0.2953784
-3.002382	КЛУБКИ	-0.2829501
-3.002382	КЛУБЫ	-0.3005978
-3.002382	КНИГАМИ	-0.3005978
-3.002382	КОБУРУ	-0.3005978
-2.826291	КОГДА	-0.2997323
-3.002382	КОЖАНОГО	-0.3005978
-3.002382	КОЖИ	-0.2995156
-3.002382	КОЛЮЧУЮ	-0.3003816
-3.002382	КОМНАТЕ	-0.2900955
-3.002382	КОНЕЦ	-0.3003816
-3.002382	КОНУСЕ	-0.2829501
-3.002382	КОНЦОМ	-0.3005978
-3.002382	КОНЦУ	-0.3003816
-3.002382	КОРЗИНКУ	-0.297996
-3.002382	КОРИЧНЕВУЮ	-0.3005978
-3.002382	КОРРЕСПОНДЕНТ	-0.3005978
-3.002382	КОРТОЧКАХ	-0.3003816
-3.002382	КОРУ	-0.3005978
-3.002382	КРАСНЫЙ	-0.3005978
-3.002382	КРЕСТОМ	-0.2829501
-3.002382	КРИКНУТЬ	-0.298865
-3.002382	КРОВЬ	-0.2900955
-3.002382	КРУГЛАЯ	-0.3005978
-3.002382	КРУГЛОЕ	-0.3005978
-2.826291	КТО	-0.2995156
-3.002382	КУПОЛА	-0.2829501
-3.002382	КУЧЕ	-0.3005978
-3.002382	КУЧКИ	-0.3005978
-3.002382	КУЩИ	-0.3005978
-3.002382	ЛЁГКИМИ	-0.3005978
-3.002382	ЛАМПОЧКА	-0.2900955
-3.002382	ЛАПЧАТОЙ	-0.3005978
-2.826291	ЛЕГКО	-0.3001653
-3.002382	ЛЕДЯНУЮ	-0.3005978
-3.002382	ЛЕЖАВШИЙ	-0.2953784
-3.002382	ЛЕЖАЛИ	-0.2953784
-3.002382	ЛЕЖАЩЕЙ	-0.2900955
-3.002382	ЛЕНИВЫЕ	-0.3005978
-3.002382	ЛЕСЕНКУ	-0.3005978
-2.826291	ЛЕСОВ	-0.3001653
-2.604442	ЛЕТ	-0.298865
-3.002382	ЛЕТЕЛ	-0.2953784
-3.002382	ЛЕТЕЛА	-0.299082
-3.002382	ЛЕТЕТЬ	-0.2986479
-3.002382	ЛИ	-0.3003816
-2.826291	ЛИНИЙ	-0.3001653
-3.002382	ЛИЦО	-0.2997323
-2.826291	ЛОБ	-0.2896523
-3.002382	ЛОВКИМ	-0.2920841
-2.303412	ЛОСЬ	-0.3126431
-3.002382	ЛОСЯ	-0.3003816
-3.002382	ЛУПИТЬ	-0.3005978
-3.002382	ЛУЧ	-0.3005978
-3.002382	ЛУЧИ	-0.2829501
-3.002382	ЛЬДЫ	-0.2829501
-3.002382	ЛЮБВИ	-0.2829501
-3.002382	ЛЮДЕЙ	-0.3005978
-3.002382	ЛЮКА	-0.2829501
-3.002382	МАГНИТНЫХ	-0.3005978
-3.002382	МАЛЕНЬКИЙ	-0.3003816
-3.002382	МАЛО	-0.3005978
-2.826291	МАЛЬЧИК	-0.2894306
-2.701352	МАРС	-0.2912014
-3.002382	МАРСА	-0.2829501
-3.002382	МАРСЕ	-0.3005978
-3.002382	МАССИВНОЙ	-0.3003816
-3.002382	МАТЕРИК	-0.3005978
-3.002382	МАТЕРЬЮ	-0.3005978
-3.002382	МАХНОВЩИНА	-0.3005978
-3.002382	МАША	-0.3005978
-3.002382	МАШИНОЙ	-0.298865
-3.002382	МЕДЛЕННО	-0.2992989
-3.002382	МЕДНЫЕ	-0.3005978
-3.002382	МЕЖДУ	-0.3005978
-3.002382	МЕЖДУЗВЁЗДНОМ	-0.3003816
-3.002382	МЕНЕЕ	-0.3005978
-3.002382	МЕНЯ	-0.3001653
-3.002382	МЕНЯЮЩИЕСЯ	-0.3005978
-3.002382	МЕТАЛЛИЧЕСКАЯ	-0.297996
-2.826291	МЕТРОВ	-0.2896523
-3.002382	МЕХАНИЗМ	-0.3003816
-3.002382	МЕХАНИЗМА	-0.3001653
-3.002382	МИМО	-0.3005978
-3.002382	МИНУЛИ	-0.3005978
-3.002382	МИНУТУ	-0.3003816
-3.002382	МИРИАДЫ	-0.3005978
-3.002382	МИРОВ	-0.2829501
-3.002382	МЛАДЕНЦАМИ	-0.2829501
-3.002382	МНОГОУГОЛЬНУЮ	-0.3005978
-3.002382	МНОГОЭТАЖНЫХ	-0.3005978
-3.002382	МОЁ	-0.3005978
-3.002382	МОГЛА	-0.3005978
-2.826291	МОГЛИ	-0.2999488
-3.002382	МОЖЕТ	-0.2995156
-3.002382	МОЖЕТЕ	-0.3005978
-2.826291	МОЖНО	-0.2992989
-2.826291	МОЙ	-0.2999488
-3.002382	МОЛОДУЮ	-0.3005978
-3.002382	МОЛЧАНИИ	-0.2992989
-3.002382	МОНЕТНУЮ	-0.3001653
-3.002382	МОРЯ	-0.2829501
-3.002382	МОСКВЫ	-0.2900955
-3.002382	МУЖЕСТВОМ	-0.3003816
-3.002382	МУЖИКАМ	-0.3005978
-3.002382	МУЧИТЕЛЬНО	-0.2829501
-2.826291	МЫ	-0.3001653
-3.002382	МЫШЬ	-0.3005978
-3.002382	МЯГКОЙ	-0.2920841
-3.002382	НЁМ	-0.2995156
-1.888439	НА	-0.2979417
-3.002382	НАБЕРЕЖНОЙ	-0.3005978
-3.002382	НАБЕРЕЖНУЮ	-0.2829501
-3.002382	НАБЛЮДЕНИЯ	-0.2920841
-3.002382	НАГНУЛСЯ	-0.2920841
-2.458314	НАД	-0.297996
-3.002382	НАДОЕДАТЬ	-0.2829501
-3.002382	НАДОЕЛО	-0.3005978
-3.002382	НАЗАД	-0.3005978
-3.002382	НАКИНУЛ	-0.3005978
-3.002382	НАПРАВЛЕНИЮ	-0.299082
-3.002382	НАХОДИЛИСЬ	-0.3005978
-3.002382	НАЧАЛ	-0.3005978
-3.002382	НАШЁЛ	-0.3005978
-2.34917	НЕ	-0.2969072
-3.002382	НЕЁ	-0.2995156
-3.002382	НЕБОЛЬШАЯ	-0.3005978
-3.002382	НЕБОЛЬШОЙ	-0.3005978
-3.002382	НЕВЕ	-0.3005978
-3.002382	НЕДОЛГО	-0.3005978
-3.002382	НЕЖИЛЫМИ	-0.3001653
-3.002382	НЕЙ	-0.3005978
-3.002382	НЕМУ	-0.3005978
-3.002382	НЕОБЫКНОВЕННОГО	-0.3005978
-3.002382	НЕОБЫЧАЙНО	-0.3003816
-3.002382	НЕПОСТИГАЕМЫЕ	-0.3003816
-3.002382	НЕРОЖДЁННЫХ	-0.3005978
-2.701352	НЕСКОЛЬКО	-0.298865
-3.002382	НЕШИРОКИЕ	-0.3003816
-2.701352	НИ	-0.2997323
-3.002382	НИЗКОЕ	-0.3005978
-3.002382	НИКОГДА	-0.299082
-2.826291	НИХ	-0.2813713
-2.826291	НО	-0.2999488
-3.002382	НОГ	-0.3005978
-2.826291	НОГИ	-0.2736199
-3.002382	НОГОЙ	-0.2986479
-3.002382	НОС	-0.3003816
-3.002382	НОСЯТСЯ	-0.3005978
-3.002382	НОЧЕВАЛ	-0.2829501
-3.002382	НУ	-0.3005978
-3.002382	О	-0.3005978
-3.002382	ОБ	-0.3005978
-3.002382	ОБЕСПЕЧИТЬ	-0.3005978
-2.826291	ОБЛАКА	-0.299082
-3.002382	ОБМОТКАХ	-0.2829501
-3.002382	ОБОЗ	-0.3005978
-3.002382	ОБСЫПАВШИЕСЯ	-0.3005978
-3.002382	ОБЩИХ	-0.3005978
-3.002382	ОБЪЯВЛЕНИЕ	-0.3003816
-2.826291	ОБЪЯВЛЕНИЕМ	-0.3001653
-3.002382	ОГИБАЛИ	-0.3005978
-3.002382	ОГЛЯНУЛ	-0.3005978
-3.002382	ОГНЕННЫЕ	-0.3005978
-3.002382	ОГНЯ	-0.3005978
-3.002382	ОГОЛЁННУЮ	-0.3005978
-3.002382	ОГРОМНОМ	-0.2992989
-3.002382	ОДЕЖДЕ	-0.3005978
-2.826291	ОДИН	-0.297996
-3.002382	ОДИНОЧЕСТВО	-0.3005978
-3.002382	ОДНА	-0.3005978
-3.002382	ОДНИ	-0.2920841
-3.002382	ОДНОЙ	-0.3005978
-3.002382	ОЖИДАЛ	-0.3005978
-3.002382	ОЖИДАЮЩЕЙ	-0.3005978
-3.002382	ОЖИЛА	-0.3003816
-3.002382	ОКАЗАЛСЯ	-0.3005978
-3.002382	ОКЕАНЕ	-0.2829501
-3.002382	ОКЕАНЫ	-0.2829501
-2.826291	ОКНА	-0.2999488
-3.002382	ОКОН	-0.2829501
-3.002382	ОКОЧЕНЕЛЫЙ	-0.3005978
-3.002382	ОКРУЖАЛА	-0.3005978
-3.002382	ОКУНУЛ	-0.2900955
-2.303412	ОН	-0.2966892
-2.826291	ОНА	-0.3001653
-2.604442	ОНИ	-0.2992989
-3.002382	ОПРЕДЕЛИЛ	-0.3001653
-3.002382	ОПРЯТНОМ	-0.3005978
-3.002382	ОПУСКАЛСЯ	-0.3005978
-3.002382	ОРАНЖЕВЫЕ	-0.297996
-3.002382	ОСВЕЩЁН	-0.2995156
-3.002382	ОСВЕЩЁННАЯ	-0.3005978
-3.002382	ОСВЕЩЁННЫЕ	-0.3003816
-3.002382	ОСЕДАЮТ	-0.2953784
-3.002382	ОСЕННИЙ	-0.3005978
-3.002382	ОСКОЛКИ	-0.3005978
-3.002382	ОСЛЕПИТЕЛЬНЫЙ	-0.3005978
-3.002382	ОСТАНОВИЛСЯ	-0.3005978
-3.002382	ОСТЫВАЮЩИХ	-0.3005978
-2.458314	ОТ	-0.3391711
-3.002382	ОТВЕРСТИЕ	-0.3005978
-2.826291	ОТВЕРСТИЯ	-0.3001653
-3.002382	ОТЕЦ	-0.297996
-3.002382	ОТКЛОНИЛ	-0.3005978
-3.002382	ОТКРЫЛ	-0.3005978
-3.002382	ОТОБЬЁМ	-0.2920841
-3.002382	ОТОРВАЛСЯ	-0.2995156
-3.002382	ОТСЮДА	-0.2995156
-3.002382	ОТЫСКАЛ	-0.3005978
-3.002382	ОЧЕНЬ	-0.3005978
-3.002382	ПАДАЕМ	-0.2829501
-3.002382	ПАЛЬТО	-0.2920841
-3.002382	ПАСЛИСЬ	-0.3003816
-3.002382	ПАУК	-0.3005978
-2.826291	ПЕРЕД	-0.4764729
-2.826291	ПЕРЕЛЁТ	-0.2876525
-3.002382	ПЕРЕЛЁТА	-0.3005978
-3.002382	ПЕРЕЛИВАЛСЯ	-0.3005978
-3.002382	ПЕРЕПРЫГИВАЛИ	-0.2995156
-3.002382	ПЕРЕУЛКОВ	-0.3005978
-3.002382	ПЕСКУ	-0.3003816
-3.002382	ПЕТЕРБУРГА	-0.2920841
-3.002382	ПЕТЕРБУРГОМ	-0.2920841
-3.002382	ПЛАН	-0.3005978
-3.002382	ПЛАНЕТ	-0.3005978
-3.002382	ПЛАТЬЕ	-0.3003816
-2.458314	ПО	-0.2984308
-3.002382	ПОБЕЖАЛ	-0.2986479
-3.002382	ПОБЛЕСКИВАЛА	-0.3005978
-3.002382	ПОВЕРХНОСТЬ	-0.3005978
-3.002382	ПОГИБ	-0.3005978
-3.002382	ПОГИБШИХ	-0.3005978
-3.002382	ПОГЛОЩЕНИЯ	-0.3005978
-3.002382	ПОГЛЯДЫВАЛИ	-0.2953784
-2.701352	ПОД	-0.2997323
-3.002382	ПОДАВАЯ	-0.3003816
-3.002382	ПОДВЁРТКИ	-0.2829501
-3.002382	ПОДНИМАЯ	-0.3005978
-3.002382	ПОДНЯВШИЙСЯ	-0.2999488
-3.002382	ПОДНЯВШИХСЯ	-0.297996
-2.826291	ПОДНЯЛА	-0.2975608
-3.002382	ПОДУШКИ	-0.3003816
-3.002382	ПОДШТАНИКИ	-0.3005978
-3.002382	ПОЙМУ	-0.2999488
-3.002382	ПОКАЗАЛ	-0.3005978
-3.002382	ПОКАЛЫВАЛО	-0.3005978
-3.002382	ПОКАТИЛСЯ	-0.3005978
-3.002382	ПОЛГОДА	-0.3005978
-3.002382	ПОЛОВИНКИ	-0.3005978
-3.002382	ПОЛОВИНОЙ	-0.3003816
-3.002382	ПОЛОСЫ	-0.3005978
-3.002382	ПОЛУКРУЖИЙ	-0.3005978
-3.002382	ПОЛЫЕ	-0.3005978
-3.002382	ПОЛЮСЫ	-0.2829501
-3.002382	ПОЛЯХ	-0.3005978
-3.002382	ПОМЕРЛИ	-0.3005978
-3.002382	ПОНЕМНОГУ	-0.3005978
-3.002382	ПОПАЛИ	-0.3005978
-3.002382	ПОПЕРЕЧНИКЕ	-0.2829501
-3.002382	ПОР	-0.2829501
-3.002382	ПОРОГЕ	-0.3003816
-3.002382	ПОСЛЕ	-0.3005978
-3.002382	ПОСТОЯННО	-0.3005978
-3.002382	ПОСТРОЕН	-0.2986479
-3.002382	ПОТОМ	-0.3005978
-3.002382	ПОТУШЕНО	-0.2920841
-3.002382	ПОХОЖИЕ	-0.2953784
-3.002382	ПОЧВЕ	-0.2829501
-3.002382	ПОШЁЛ	-0.2995156
-3.002382	ПОШАТНЁТСЯ	-0.3005978
-3.002382	ПОШЛА	-0.2995156
-3.002382	ПОЭТОМУ	-0.3003816
-3.002382	ПОЯСА	-0.2900955
-3.002382	ПРАВИЛЬНЫЕ	-0.3005978
-3.002382	ПРАХА	-0.3005978
-3.002382	ПРАХУ	-0.3005978
-3.002382	ПРЕДЛОЖИЛ	-0.3005978
-3.002382	ПРЕДУПРЕДИЛ	-0.3005978
-3.002382	ПРИБОРЫ	-0.2999488
-3.002382	ПРИВЫЧНОЙ	-0.3005978
-3.002382	ПРИВЯЗАНА	-0.3005978
-3.002382	ПРИГОЖУСЬ	-0.3005978
-3.002382	ПРИГОТОВЬ	-0.3005978
-3.002382	ПРИКОЛОЧЕННОЕ	-0.3005978
-3.002382	ПРИНЦИП	-0.3005978
-3.002382	ПРИОТВОРЕНА	-0.2953784
-3.002382	ПРИТЯГИВАЕМСЯ	-0.3005978
-3.002382	ПРИЩУРЯСЬ	-0.3005978
-3.002382	ПРОВИЗИИ	-0.2829501
-3.002382	ПРОДУКТАМИ	-0.2829501
-3.002382	ПРОЛОМАННЫЙ	-0.3005978
-2.826291	ПРОНИКАЛ	-0.2885425
-3.002382	ПРОРЕЗЫВАЛ	-0.3003816
-2.826291	ПРОСТРАНСТВЕ	-0.2999488
-3.002382	ПРОТИВОПОЛОЖНЫЕ	-0.3005978
-3.002382	ПРОХОДЯ	-0.3005978
-3.002382	ПРОХОЖИХ	-0.2920841
-3.002382	ПРУДИКИ	-0.2829501
-3.002382	ПРЯДЬ	-0.3005978
-3.002382	ПРЯМОЙ	-0.3005978
-3.002382	ПУЛЯ	-0.3001653
-3.002382	ПУСТИВШЕЕ	-0.2995156
-3.002382	ПУСТЫЕ	-0.3003816
-3.002382	ПУСТЫННЫЕ	-0.3005978
-3.002382	ПУСТЫНЮ	-0.2829501
-3.002382	ПУСТЫРЬ	-0.2953784
-3.002382	ПУТЕШЕСТВИЕ	-0.2953784
-3.002382	ПХНУЛ	-0.3005978
-3.002382	ПЫЛЬЦУ	-0.2920841
-3.002382	РЁБРАМИ	-0.2920841
-3.002382	РАБОТАЮ	-0.3003816
-2.826291	РАБОЧИЙ	-0.291643
-3.002382	РАВНИНА	-0.3005978
-3.002382	РАВНИНОЙ	-0.2920841
-3.002382	РАВНИНУ	-0.2829501
-3.002382	РАД	-0.3005978
-3.002382	РАЗ	-0.2900955
-3.002382	РАЗБИЛ	-0.3005978
-3.002382	РАЗБИТЫЕ	-0.3003816
-3.002382	РАЗБРОСАНО	-0.299082
-3.002382	РАЗВЕРНУЛ	-0.3005978
-3.002382	РАЗГОВОРЫ	-0.2900955
-3.002382	РАЗЛОМИЛ	-0.3005978
-3.002382	РАЗМЕШИВАЛ	-0.2900955
-3.002382	РАЗНЫЕ	-0.3005978
-3.002382	РАЗУМ	-0.3005978
-3.002382	РАКЕТА	-0.2829501
-3.002382	РАСКРЫТЫЕ	-0.3005978
-3.002382	РАСПРОСТЁРТОЕ	-0.2900955
-3.002382	РАССКАЗАЛ	-0.3003816
-3.002382	РАССТЕГНУЛ	-0.3005978
-3.002382	РАССЫПАЮЩЕЙ	-0.3005978
-3.002382	РЕВОЛЬВЕР	-0.3005978
-3.002382	РЕВЯ	-0.2920841
-3.002382	РЕЗКИЕ	-0.3005978
-3.002382	РЕОСТАТАМ	-0.3005978
-3.002382	РИСКЕ	-0.2829501
-3.002382	РОМБАМИ	-0.3005978
-3.002382	РОСКОШНОМ	-0.3005978
-3.002382	РОСЛЫЙ	-0.3005978
-3.002382	РУБАХЕ	-0.3001653
-3.002382	РУБАШКЕ	-0.3005978
-3.002382	РУБАШКИ	-0.3005978
-3.002382	РУКЕ	-0.298865
-3.002382	РУКУ	-0.2999488
-2.157284	С	-0.2953784
-3.002382	САДИМСЯ	-0.3005978
-2.826291	САМ	-0.298865
-3.002382	САРАЙ	-0.3005978
-2.826291	САРАЯ	-0.4590414
-3.002382	СБИВАЛИСЬ	-0.2900955
-3.002382	СВЁРНУТАЯ	-0.2900955
-2.826291	СВЕТ	-0.4764729
-3.002382	СВОДЧАТОГО	-0.3005978
-3.002382	СВОДЯЩИЕ	-0.297996
-3.002382	СЕБЕ	-0.2953784
-3.002382	СЕЙЧАС	-0.2999488
-3.002382	СЕЛ	-0.299082
-3.002382	СЕМЕНА	-0.3005978
-2.826291	СЕМЬ	-0.2995156
-3.002382	СЕМЬЮ	-0.2920841
-3.002382	СЕРДЦЕ	-0.3003816
-3.002382	СЕРО	-0.3005978
-2.826291	СЕТЬ	-0.2999488
-2.826291	СИДЕЛ	-0.2949406
-3.002382	СИТЦЕВОМ	-0.3005978
-3.002382	СИХ	-0.3005978
-3.002382	СКАЗАЛ	-0.298865
-2.826291	СКАЙЛС	-0.3001653
-2.826291	СКАЙЛЬС	-0.3001653
-3.002382	СКАЙЛЬСА	-0.3005978
-3.002382	СКАЛ	-0.2999488
-3.002382	СКВЕРЕ	-0.3005978
-2.458314	СКВОЗЬ	-0.2982135
-3.002382	СКОЛЬЗИЛИ	-0.3005978
-3.002382	СЛЕДЫ	-0.3005978
-3.002382	СЛОЖНО	-0.3005978
-3.002382	СМЕНЫ	-0.3005978
-3.002382	СМЕРТИ	-0.3005978
-3.002382	СМЕТЛИВЫМ	-0.3005978
-3.002382	СМОРЩИЛСЯ	-0.2829501
-3.002382	СНАЧАЛА	-0.3005978
-3.002382	СО	-0.3005978
-3.002382	СОБЫТИЯ	-0.2829501
-3.002382	СОЛДАТ	-0.2900955
-3.002382	СОЛДАТА	-0.3005978
-3.002382	СОЛНЦА	-0.2829501
-3.002382	СОЛНЦЕ	-0.3005978
-3.002382	СОЛЬ	-0.2953784
-3.002382	СОТРЯСАЯСЬ	-0.3005978
-3.002382	СПАЛЬНЮ	-0.3001653
-3.002382	СПИРАЛЬ	-0.3005978
-3.002382	СПОКОЙНЫМ	-0.3005978
-3.002382	СТЁГАНОГО	-0.3005978
-3.002382	СТЁГАНОЙ	-0.3005978
-3.002382	СТЁКЛА	-0.3003816
-3.002382	СТАЛ	-0.3005978
-2.826291	СТАЛА	-0.3001653
-2.826291	СТАЛИ	-0.2999488
-3.002382	СТАРАЯ	-0.3005978
-3.002382	СТЕКЛОМ	-0.3003816
-3.002382	СТЕНАХ	-0.3005978
-3.002382	СТОКГОЛЬМЕ	-0.2829501
-3.002382	СТОЛОМ	-0.3005978
-3.002382	СТОЛУ	-0.3005978
-2.826291	СТОРОНУ	-0.2997323
-3.002382	СТОРОНЫ	-0.3005978
-3.002382	СТОЯВШУЮ	-0.3003816
-3.002382	СТРАННЫЕ	-0.3005978
-3.002382	СТРОК	-0.3005978
-3.002382	СТУЧАЛА	-0.3005978
-3.002382	СУМЕРЕК	-0.3005978
-3.002382	СУРИК	-0.2829501
-3.002382	СУХ	-0.2829501
-3.002382	СФЕРИЧЕСКОГО	-0.3005978
-3.002382	ТЁМНЫЙ	-0.3005978
-3.002382	ТЁПЛЫЙ	-0.3005978
-2.826291	ТАК	-0.2995156
-3.002382	ТАКОВ	-0.2900955
-2.826291	ТАМ	-0.299082
-3.002382	ТЕ	-0.2999488
-3.002382	ТЕЛА	-0.2829501
-3.002382	ТЕЛЕСКОПА	-0.3005978
-3.002382	ТЕНИ	-0.2995156
-2.400322	ТЕПЕРЬ	-0.2973431
-3.002382	ТКНУЛ	-0.3005978
-3.002382	ТКНУЛСЯ	-0.2900955
-2.701352	ТО	-0.2997323
-3.002382	ТОГО	-0.2999488
-3.002382	ТОЖЕ	-0.2992989
-3.002382	ТОЙ	-0.3005978
-3.002382	ТОЛКУ	-0.3005978
-3.002382	ТОЛПЕ	-0.3005978
-3.002382	ТОЛЬКО	-0.3005978
-3.002382	ТОМУ	-0.3005978
-3.002382	ТОНОК	-0.2920841
-3.002382	ТОЧЕК	-0.2920841
-3.002382	ТРАВА	-0.2999488
-3.002382	ТРАВЕ	-0.3005978
-3.002382	ТРЕПЕЩЕТ	-0.3005978
-3.002382	ТРОТУАРА	-0.3005978
-3.002382	ТРУБКИ	-0.3005978
-3.002382	ТРУБКОЙ	-0.2900955
-3.002382	ТРУДОМ	-0.3005978
-3.002382	ТРУП	-0.3005978
-3.002382	ТУГОПЛАВКОЙ	-0.3003816
-3.002382	ТУСКЛОГО	-0.3005978
-3.002382	ТУСКЛОЙ	-0.3005978
-3.002382	ТУЧ	-0.3005978
-3.002382	ТЫСЯЧИ	-0.3005978
-3.002382	ТЫСЯЧУ	-0.2999488
-3.002382	ТЬМЕ	-0.2829501
-3.002382	ТЯНУЛИСЬ	-0.2995156
-2.604442	У	-0.297996
-3.002382	УБИТЫ	-0.3005978
-3.002382	УВЕРЕННО	-0.2920841
-3.002382	УВИДЕЛ	-0.3005978
-3.002382	УГЛЕКИСЛОТЫ	-0.3005978
-3.002382	УДАРА	-0.3005978
-2.826291	УЖ	-0.2912014
-2.604442	УЖЕ	-0.296471
-3.002382	УЗКИЕ	-0.3003816
-3.002382	УКРЕПЛЁН	-0.3005978
-3.002382	УЛЕТЕТЬ	-0.3005978
-2.701352	УЛИЦУ	-0.3778292
-3.002382	УЛИЦЫ	-0.3005978
-3.002382	УМА	-0.3005978
-3.002382	УМЕРЛА	-0.3005978
-3.002382	УМЫЛАСЬ	-0.2829501
-3.002382	УПАЛ	-0.3005978
-3.002382	УСАМИ	-0.3005978
-3.002382	УСЛОВИЯХ	-0.3005978
-3.002382	УСПЕЛ	-0.3005978
-3.002382	УТОМЛЁННЫМ	-0.3003816
-3.002382	УХО	-0.3003816
-3.002382	УЧЕСТЬ	-0.2900955
-3.002382	УЧИЛСЯ	-0.2953784
-3.002382	ФЕЛЬЕТОНОВ	-0.2995156
-3.002382	ФЕРМАМИ	-0.2829501
-3.002382	ХВАТКОЙ	-0.3005978
-3.002382	ХОЛМИСТАЯ	-0.3005978
-3.002382	ХОРОШО	-0.3005978
-3.002382	ХОТЯ	-0.3003816
-3.002382	ХРЕБТОМ	-0.2829501
-3.002382	ЦВЕТА	-0.2829501
-3.002382	ЦЕЛУЕТ	-0.3003816
-3.002382	ЦЕПИ	-0.2953784
-3.002382	ЧЁРНОЙ	-0.3005978
-3.002382	ЧАСОВ	-0.2829501
-3.002382	ЧАСТОЙ	-0.3005978
-3.002382	ЧАХЛОЙ	-0.3005978
-2.826291	ЧАЩЕ	-0.2992989
-3.002382	ЧЕК	-0.3005978
-3.002382	ЧЕЛОВЕК	-0.3001653
-3.002382	ЧЕЛОВЕКОМ	-0.2829501
-3.002382	ЧЕЛОВЕЧЕСКИЙ	-0.3005978
-3.002382	ЧЕМ	-0.3003816
-2.458314	ЧЕРЕЗ	-0.2975609
-3.002382	ЧЕРЕП	-0.2900955
-3.002382	ЧЕРТАХ	-0.2997323
-3.002382	ЧЕРТЕЖАМИ	-0.2920841
-3.002382	ЧИСТОЕ	-0.3005978
-3.002382	ЧИТАЛА	-0.3005978
-2.701352	ЧТО	-0.2986479
-3.002382	ЧУВСТВОВАЛ	-0.3005978
-3.002382	ЧУДОВИЩЕ	-0.2829501
-3.002382	ШАГАЛ	-0.3005978
-3.002382	ШАПКИ	-0.2995156
-3.002382	ШАРИК	-0.2829501
-3.002382	ШЕВЕЛИТЬ	-0.3005978
-3.002382	ШЕВЕЛЯ	-0.3005978
-3.002382	ШЕСТИ	-0.3003816
-2.826291	ШЕСТЬ	-0.2999488
-3.002382	ШИРОКИЕ	-0.3005978
-3.002382	ШИРОКО	-0.2829501
-3.002382	ШИРОКОПЛЕЧИЙ	-0.3005978
-2.701352	ШЛИ	-0.2960343
-3.002382	ШТАНОВ	-0.2829501
-3.002382	ШТЫК	-0.299082
-3.002382	ЩЁКИ	-0.2900955
-3.002382	ЩЕЛИ	-0.3005978
-3.002382	ЩЕТИНИСТЫЕ	-0.3005978
-3.002382	ЩИКОЛОТКУ	-0.2900955
-3.002382	ЭДАК	-0.2829501
-3.002382	ЭЙ	-0.3005978
-3.002382	ЭКВАТОРИАЛЬНОЙ	-0.3005978
-3.002382	ЭЛЕКТРИЧЕСКАЯ	-0.3005978
-3.002382	ЭЛЕКТРИЧЕСТВО	-0.2999488
-3.002382	ЭТА	-0.3003816
-2.701352	ЭТО	-0.2986479
-2.604442	ЭТОГО	-0.2992989
-2.701352	ЭТОЙ	-0.2997323
-2.826291	ЭТОМ	-0.3001653
-2.826291	ЭТУ	-0.2999488
-2.826291	Я	-0.3001653
-3.002382	ЯЙЦА	-0.3005978
-3.002382	ЯЙЦЕОБРАЗНЫЙ	-0.2999488
-2.826291	ЯРКО	-0.3001653
-3.002382	ЯСНО	-0.3003816
-3.002382	ЯСНЫЙ	-0.3005978
-3.002382	ЯЩЕРИЦ	-0.3003816
-3.002382	ЯЩИКИ	-0.3003816

\2-grams:
-2.146128	<s> АВАНС
-1.845098	<s> АППАРАТ
-2.146128	<s> АХ
-2.146128	<s> БЫТЬ
-1.30103	<s> В
-2.146128	<s> ВЕДЬ
-2.146128	<s> ВНУТРИ
-2.146128	<s> ГЛАЗА
-1.845098	<s> ГУСЕВ
-2.146128	<s> ДО
-1.845098	<s> ЕГО
-2.146128	<s> ИДТИ
-2.146128	<s> ИЗ
-2.146128	<s> КАЗАЛОСЬ
-2.146128	<s> КОРРЕСПОНДЕНТ
-2.146128	<s> ЛИЦО
-1.367977	<s> ЛОСЬ
-2.146128	<s> МАЛЬЧИК
-2.146128	<s> МЕЖДУ
-2.146128	<s> МЫ
-2.146128	<s> МЫШЬ
-1.669007	<s> НА
-1.845098	<s> НАД
-2.146128	<s> НАДОЕЛО
-2.146128	<s> НАКИНУЛ
-2.146128	<s> НЕБОЛЬШАЯ
-2.146128	<s> НЕДОЛГО
-1.845098	<s> НЕСКОЛЬКО
-2.146128	<s> ОБОЗ
-2.146128	<s> ОДНИ
-2.146128	<s> ОКНА
-1.669007	<s> ОН
-2.146128	<s> ОНА
-2.146128	<s> ОНИ
-2.146128	<s> ОСЕННИЙ
-2.146128	<s> ОТ
-2.146128	<s> ОТСЮДА
-2.146128	<s> ПОКАЛЫВАЛО
-2.146128	<s> ПОТОМ
-2.146128	<s> ПОЭТОМУ
-2.146128	<s> ПРЕДЛОЖИЛ
-2.146128	<s> ПРИВЫЧНОЙ
-2.146128	<s> РАЗВЕРНУЛ
-2.146128	<s> САРАЙ
-2.146128	<s> СВЕТ
-2.146128	<s> СЕЙЧАС
-2.146128	<s> СЕМЬ
-2.146128	<s> СКАЙЛЬС
-1.845098	<s> СКВОЗЬ
-2.146128	<s> СНАЧАЛА
-2.146128	<s> СО
-2.146128	<s> ТАКОВ
-2.146128	<s> ТЕПЕРЬ
-2.146128	<s> УЧИЛСЯ
-1.845098	<s> ЧЕРЕЗ
-2.146128	<s> ЧТО
-2.146128	<s> ШЛИ
-2.146128	<s> ЭЛЕКТРИЧЕСТВО
-2.146128	<s> Я
-0.30103	АВАНС ШЕСТЬ
-0.30103	АД И
-0.30103	АЛЕКСЕЙ ИВАНОВИЧ
-0.30103	АМЕРИКАНСКОЙ ГАЗЕТЫ
-0.30103	АПЕЛЬСИНОВОГО НО
-0.544068	АППАРАТ БЫЛ
-0.845098	АППАРАТ ПРОРЕЗЫВАЛ
-0.845098	АППАРАТ ТАК
-0.30103	АППАРАТЫ НАБЛЮДЕНИЯ
-0.30103	АРЧИБАЛЬД СКАЙЛС
-0.30103	АСТРОНОМОВ ПОСТОЯННО
-0.30103	АТЛАНТИЧЕСКОМ ОКЕАНЕ
-0.30103	АФРИКИ В
-0.30103	АХ БОЖЕ
-0.30103	БАГРОВЫЕ ПОЛОСЫ
-0.30103	БАКИ ЯЩИКИ
-0.30103	БАЛКИ ЛЕСОВ
-0.30103	БАРЫШНИ БЫЛО
-0.30103	БЕЖАЛИ ИЗ
-0.7781513	БЕЗ ПОЯСА
-0.7781513	БЕЗ ШАПКИ
-0.7781513	БЕЗ ШТАНОВ
-0.30103	БЕЗВОЗДУШНОМ ПРОСТРАНСТВЕ
-0.30103	БЕЗДНЫ ОН
-0.30103	БЕЗНАДЁЖНОЕ ОДИНОЧЕСТВО
-0.30103	БЕЗУМНОМ ГОРОДЕ
-0.30103	БЕРЕГА ДО
-0.30103	БЕРЛИН </s>
-0.30103	БИТЬСЯ В
-0.30103	БЛЕДНЫЙ СВЕТ
-0.30103	БЛЕСНУЛО ЗОЛОТО
-0.30103	БЛИЖАЙШЕЙ КУЩИ
-0.30103	БОЖЕ МОЙ
-0.60206	БОЛЕЕ СЛОЖНО
-0.60206	БОЛЕЕ ТУСКЛОГО
-0.30103	БОЛЬШУЮ МОНЕТНУЮ
-0.30103	БОСУЮ МОЛОДУЮ
-0.30103	БРАТЬЯ УБИТЫ
-0.30103	БУБНИЛИ СБИВАЛИСЬ
-0.30103	БУДЕТ НЕ
-0.30103	БУРОМУ ПРАХУ
-0.30103	БУРЬ В
-0.30103	БУФЕР </s>
-1	БЫЛ НЕ
-1	БЫЛ ОСВЕЩЁН
-1	БЫЛ ПОСТРОЕН
-1	БЫЛ ПРИНЦИП
-1	БЫЛ ТОНОК
-0.7403627	БЫЛА ВИДНА
-1.041393	БЫЛА ПРИВЯЗАНА
-1.041393	БЫЛА ПРИОТВОРЕНА
-1.041393	БЫЛА РАКЕТА
-1.041393	БЫЛА ТРАВА
-0.30103	БЫЛИ ВИДНЫ
-0.90309	БЫЛО В
-0.90309	БЫЛО ВИДЕТЬ
-0.90309	БЫЛО НЕОБЫЧАЙНО
-0.90309	БЫЛО ПОТУШЕНО
-0.60206	БЫТЬ ДЕЛА
-0.60206	БЫТЬ МОЖЕТ
-0.60206	БЬЁТСЯ ТРЕПЕЩЕТ
-0.60206	БЬЁТСЯ ЧАЩЕ
-1.982271	В АТЛАНТИЧЕСКОМ
-1.982271	В БЕЗВОЗДУШНОМ
-1.982271	В БЕРЛИН
-1.982271	В ВЕДЁРКЕ
-1.982271	В ВЕЧНОЙ
-1.982271	В ВИСКИ
-1.982271	В ГЛАДКИХ
-1.982271	В ГОЛОВЕ
-1.982271	В ГРЯЗНОЙ
-1.982271	В ГУЩЕ
-1.982271	В ДЕРЕВНЮ
-1.982271	В ЕЁ
-1.982271	В ЖЕСТЯНОМ
-1.982271	В ЗАКРЫТЫЕ
-1.982271	В ЗВЁЗДНУЮ
-1.982271	В ЗЕМЛЕ
-1.982271	В ЗУБАХ
-1.982271	В КОГДА
-1.982271	В КОЛЮЧУЮ
-1.982271	В КУЧКИ
-1.982271	В ЛОБ
-1.982271	В МАГНИТНЫХ
-1.982271	В МЕЖДУЗВЁЗДНОМ
-1.982271	В МНОГОУГОЛЬНУЮ
-1.982271	В МОЛЧАНИИ
-1.982271	В НЁМ
-1.982271	В НЕЁ
-1.982271	В НЕЙ
-1.982271	В ОБМОТКАХ
-1.982271	В ОБЩИХ
-1.982271	В ОДИН
-1.982271	В ОДНОЙ
-1.982271	В ПОПЕРЕЧНИКЕ
-1.982271	В ПРОТИВОПОЛОЖНЫЕ
-1.982271	В РАССЫПАЮЩЕЙ
-1.982271	В РУБАХЕ
-1.982271	В РУКЕ
-1.982271	В СИТЦЕВОМ
-1.982271	В СОЛЬ
-1.982271	В СПАЛЬНЮ
-1.982271	В СТОКГОЛЬМЕ
-1.681241	В СТОРОНУ
-1.982271	В ТОЛПЕ
-1.982271	В ЩЁКИ
-1.982271	В ЭТО
-1.982271	В ЭТОМ
-1.681241	В ЭТУ
-0.30103	ВЁРСТ УЖ
-0.30103	ВАЖНЕЕ КАТЮШИНОЙ
-0.30103	ВАЖНЕЙШИЕ ПРИБОРЫ
-0.30103	ВАМ НА
-0.30103	ВАРЁНУЮ КАРТОШКУ
-0.30103	ВАШУ ЭДАК
-0.30103	ВГЛЯДЫВАЛСЯ В
-0.30103	ВЕДЁРКЕ КИРПИЧНО
-0.30103	ВЕДЬ АД
-0.30103	ВЕКИ </s>
-0.60206	ВЕРЁВОЧКИ БЫЛА
-0.60206	ВЕРЁВОЧКИ К
-0.30103	ВЕСЁЛАЯ ЖЕНЩИНА
-0.30103	ВЕСЁЛЫМИ МЛАДЕНЦАМИ
-0.30103	ВЕСТИБЮЛЬ И
-0.30103	ВЕСЬ ПЕРЕЛЁТ
-0.30103	ВЕТЕР НАД
-0.30103	ВЕЧЕРУ МЫ
-0.30103	ВЕЧНОЙ ТЬМЕ
-0.30103	ВЗГЛЯДЫ ПРОХОЖИХ
-0.30103	ВЗЛОХМАЧЕННАЯ ВОРОНА
-0.30103	ВЗОШЁЛ НА
-0.60206	ВИДЕТЬ ИНЖЕНЕРА
-0.60206	ВИДЕТЬ РЕЗКИЕ
-0.30103	ВИДИМО УЖЕ
-0.60206	ВИДНА СКВОЗЬ
-0.60206	ВИДНА ХОЛМИСТАЯ
-0.30103	ВИДНЫ БАГРОВЫЕ
-0.30103	ВИСКИ НО
-0.30103	ВКРАТЦЕ РАССКАЗАЛ
-0.30103	ВЛЕТИТ В
-0.30103	ВНУТРЕННОСТЬ ИЗ
-0.60206	ВНУТРИ ХОРОШО
-0.60206	ВНУТРИ ЭТОГО
-0.30103	ВНУТРЬ САРАЯ
-0.60206	ВО ВНУТРЬ
-0.60206	ВО ВСЁМ
-0.30103	ВОДЯ ПО
-0.30103	ВОЗДУХ БЫЛ
-0.30103	ВОЗМОЖНОМ РИСКЕ
-0.30103	ВОЛНИСТЫХ ВОЛОС
-0.30103	ВОЛОС ЗА
-0.30103	ВОПРОС СКАЙЛЬСА
-0.60206	ВОРОНА </s>
-0.60206	ВОРОНА ПУСТЫЕ
-0.30103	ВОРОТ БЫЛИ
-0.30103	ВОСЕМЬДЕСЯТ </s>
-0.30103	ВОСТОКУ ОТ
-0.30103	ВОСЬМИ С
-0.30103	ВОТ ОНИ
-0.30103	ВОШЛИ В
-0.30103	ВПЕРЁД ДЕНЬГАМИ
-0.30103	ВРЕМЯ ПЕРЕД
-0.30103	ВСЁМ СКВЕРЕ
-0.30103	ВСЕ МИРИАДЫ
-0.30103	ВСЕГО В
-0.30103	ВСЕЛЕННОЙ </s>
-0.30103	ВСПЫХНУЛ ГНЕВНО
-0.30103	ВТОРОГО КОЖАНОГО
-0.30103	ВТОРОЙ ПАУК
-0.30103	ВТЯНУЛИ ЕГО
-0.30103	ВХОДИЛ ПРЯМОЙ
-0.30103	ВЫБЕГАЛИ ЖИВОТНЫЕ
-0.30103	ВЫГЛЯДЫВАЛА НА
-0.30103	ВЫДАТЬ ЖАЛОВАНЬЕ
-0.30103	ВЫКЛЮЧИЛ ДВИГАТЕЛЬ
-0.30103	ВЫСОКУЮ ЗАЛУ
-0.30103	ВЫСОТЫ И
-0.30103	ВЫСОХШИЕ ПРУДИКИ
-0.30103	ВЫТАЩИЛ РЕВОЛЬВЕР
-0.30103	ВЫТЯГИВАЯ НОГИ
-0.30103	ВЯЗЛИ ПО
-0.30103	ГАЗЕТЫ АРЧИБАЛЬД
-0.30103	ГВОЗДИКАМИ ОБЪЯВЛЕНИЕ
-0.7781513	ГДЕ ПОЛГОДА
-0.7781513	ГДЕ ПОСЛЕ
-0.7781513	ГДЕ ТЕПЕРЬ
-0.30103	ГЕОМЕТРИЧЕСКИ ПРАВИЛЬНЫЕ
-0.30103	ГЛАДКИХ СТЕНАХ
-0.30103	ГЛАЗ СКАЙЛЬС
-0.30103	ГЛАЗА ЛЕНИВЫЕ
-0.60206	ГЛАЗКОВ </s>
-0.60206	ГЛАЗКОВ ВХОДИЛ
-0.30103	ГЛУБОКИЕ ОТВЕРСТИЯ
-0.30103	ГЛЯДЕЛ НА
-0.30103	ГЛЯДЕЛИ НА
-0.30103	ГНЕВНО И
-0.30103	ГОВОР ШЛИ
-0.30103	ГОЛОВА НЕ
-0.30103	ГОЛОВЕ НЕ
-0.30103	ГОЛОВОЙ ЛЕТЕЛА
-0.30103	ГОРЕЛА ЭЛЕКТРИЧЕСКАЯ
-0.30103	ГОРЕЛОМУ БУРОМУ
-0.30103	ГОРОДА В
-0.30103	ГОРОДЕ </s>
-0.30103	ГОРОШКОМ И
-0.30103	ГРУДЬ СТУЧАЛА
-0.30103	ГРУППЫ </s>
-0.30103	ГРЯЗНОЙ РУБАШКЕ
-0.30103	ГУБАМИ </s>
-0.90309	ГУСЕВ И
-0.90309	ГУСЕВ НАГНУЛСЯ
-0.90309	ГУСЕВ ОКАЗАЛСЯ
-0.90309	ГУСЕВ ШЛИ
-0.30103	ГУСЕВУ МЕХАНИЗМ
-0.30103	ГУЩЕ ЛАПЧАТОЙ
-0.30103	ДА УЖ
-0.60206	ДАВНО </s>
-0.60206	ДАВНО СИДЕЛ
-0.30103	ДАЖЕ РАЗУМ
-0.30103	ДВЕ СМЕНЫ
-0.30103	ДВЕНАДЦАТИ ЛЕТ
-0.30103	ДВЕРЦА В
-0.30103	ДВЕРЬ В
-0.30103	ДВЕСТИ СТРОК
-0.30103	ДВИГАТЕЛЬ </s>
-0.60206	ДВИЖЕНИЯ И
-0.60206	ДВИЖЕНИЯ КИСЛОРОДНЫЕ
-0.30103	ДВИЖУЩЕГО МЕХАНИЗМА
-0.30103	ДВОЙНАЯ МАССИВНОЙ
-0.30103	ДЕЛА ВАЖНЕЕ
-0.30103	ДЕНЬГАМИ И
-0.30103	ДЕНЬГИ С
-0.30103	ДЕРЕВНЮ ЕХАТЬ
-0.30103	ДЕРЕВЬЕВ ЛОСЬ
-0.30103	ДЕРЕВЬЯМ ПОДНИМАЯ
-0.30103	ДЕРЖАЛ КОНЕЦ
-0.30103	ДЛИННЫЕ ТЕНИ
-0.60206	ДЛЯ ИНСТРУМЕНТОВ
-0.60206	ДЛЯ ПОГЛОЩЕНИЯ
-0.90309	ДО БЛИЖАЙШЕЙ
-0.90309	ДО ЗАВТРА
-0.90309	ДО СИХ
-0.90309	ДО СУМЕРЕК
-0.30103	ДОЛГО ГЛЯДЕЛ
-0.60206	ДОМА К
-0.60206	ДОМА ПУСТЫННЫЕ
-0.30103	ДОМЕ </s>
-0.30103	ДОМОВ ИНЫЕ
-0.30103	ДОСКАМИ КАЗАЛИСЬ
-0.30103	ДРУГОМУ КОНЦУ
-0.30103	ДУМАЛИ ЧТО
-0.30103	ДЫШАЛОСЬ ЛЕГКО
-0.60206	ЕЁ В
-0.60206	ЕЁ ОГНЕННЫЕ
-1	ЕГО БЛЕСНУЛО
-1	ЕГО В
-1	ЕГО И
-1	ЕГО ОКРУЖАЛА
-1	ЕГО ЯРКО
-0.30103	ЕДВА БЫЛ
-0.30103	ЕДИНСТВЕННЫЕ ЦЕПИ
-0.60206	ЕМУ ОБ
-0.60206	ЕМУ РУКУ
-0.30103	ЕСТЬ МОЁ
-0.30103	ЕХАТЬ ОТЕЦ
-0.30103	ЖЁЛТОЙ КОЖИ
-0.30103	ЖАДНО ВГЛЯДЫВАЛСЯ
-0.30103	ЖАЛОВАНЬЕ ВПЕРЁД
-0.30103	ЖДАНОВСКУЮ НАБЕРЕЖНУЮ
-0.30103	ЖДАТЬ КОГДА
-0.90309	ЖЕ АПЕЛЬСИНОВОГО
-0.90309	ЖЕ ВТОРОЙ
-0.90309	ЖЕ КАК
-0.90309	ЖЕ СЕМЕНА
-0.30103	ЖЕНЩИНА С
-0.30103	ЖЕНЩИНУ В
-0.30103	ЖЕНЩИНЫ С
-0.30103	ЖЕСТЯНОМ КОНУСЕ
-0.30103	ЖИВОНОСНОГО ОГНЯ
-0.30103	ЖИВОТНЫЕ ПОХОЖИЕ
-0.30103	ЖИЛИ В
-0.7781513	ЗА ВОСЕМЬДЕСЯТ
-0.7781513	ЗА ДОМА
-0.7781513	ЗА УХО
-0.30103	ЗАБРАННЫЕ СТЕКЛОМ
-0.30103	ЗАБРОШЕНА </s>
-0.30103	ЗАБРОШЕННОМ ДОМЕ
-0.30103	ЗАВАЛЕННОМ ЧЕРТЕЖАМИ
-0.30103	ЗАВЕЛА ПРЯДЬ
-0.60206	ЗАВТРА </s>
-0.60206	ЗАВТРА ПРИГОТОВЬ
-0.30103	ЗАКАТА И
-0.30103	ЗАКОЛОЧЕННЫЕ ДОСКАМИ
-0.30103	ЗАКРИЧАЛ ОН
-0.30103	ЗАКРЫТЫЕ ВЕКИ
-0.30103	ЗАЛУ </s>
-0.30103	ЗАНОГУ СТАРАЯ
-0.30103	ЗАПАД ОТ
-0.30103	ЗАПАДУ И
-0.30103	ЗАРАБАТЫВАЮ </s>
-0.30103	ЗАРОСЛИ СКОЛЬЗИЛИ
-0.30103	ЗАШАГАЛ ЧЕРЕЗ
-0.30103	ЗВЁЗД </s>
-0.30103	ЗВЁЗДНУЮ ПУСТЫНЮ
-0.30103	ЗДЕСЬ ЛИ
-0.30103	ЗЕЛЕНЬЮ И
-0.30103	ЗЕМЛЕ ПОД
-0.30103	ЗЕМЛИ </s>
-0.30103	ЗЕМЛЮ НА
-0.30103	ЗЕМЛЯ ЗАБРОШЕНА
-0.30103	ЗЕМНУЮ КОРУ
-0.30103	ЗОВЁТ ЛЕТЕТЬ
-0.30103	ЗОЛОТО </s>
-0.30103	ЗРЕЛИЩА ЖИВОНОСНОГО
-0.30103	ЗУБАМИ У
-0.30103	ЗУБАХ ЕГО
-0.30103	ЗУБЧАТЫМ ХРЕБТОМ
-1.90309	И БЕЗ
-1.90309	И БЛЕДНЫЙ
-1.90309	И ВАЖНЕЙШИЕ
-1.90309	И ВОДЯ
-1.90309	И ВОСТОКУ
-1.90309	И ВОШЛИ
-1.90309	И ВЫДАТЬ
-1.90309	И ВЫКЛЮЧИЛ
-1.90309	И ВЯЗЛИ
-1.90309	И ГУСЕВ
-1.90309	И ДВИЖЕНИЯ
-1.90309	И ДОЛГО
-1.90309	И ЕСТЬ
-1.90309	И ЗАШАГАЛ
-1.90309	И К
-1.90309	И КЛУБЫ
-1.90309	И КНИГАМИ
-1.90309	И ЛЁГКИМИ
-1.90309	И МАША
-1.90309	И МУЖИКАМ
-1.90309	И НА
-1.90309	И ОН
-1.90309	И ПОЛУКРУЖИЙ
-1.90309	И ПОШЁЛ
-1.90309	И ПОШЛА
-1.90309	И ПРИКОЛОЧЕННОЕ
-1.90309	И ПРОВИЗИИ
-1.90309	И ПРОДУКТАМИ
-1.90309	И ПХНУЛ
-1.90309	И РАЗМЕШИВАЛ
-1.90309	И РЕВЯ
-1.90309	И СМЕТЛИВЫМ
-1.90309	И СОТРЯСАЯСЬ
-1.90309	И СУХ
-1.90309	И ТАК
-1.90309	И ТЕ
-1.90309	И ТКНУЛСЯ
-1.90309	И ТУГОПЛАВКОЙ
-1.90309	И ШЕСТИ
-1.90309	И ШИРОКО
-0.30103	ИВАНОВИЧ ПРИТЯГИВАЕМСЯ
-0.30103	ИДТИ БЫЛО
-1.278754	ИЗ ГЛАЗКОВ
-1.278754	ИЗ ЗА
-1.278754	ИЗ МОСКВЫ
-1.278754	ИЗ МЯГКОЙ
-1.278754	ИЗ ПЕРЕУЛКОВ
-0.9777236	ИЗ ПОД
-1.278754	ИЗ СТЁГАНОЙ
-1.278754	ИЗ ЧЁРНОЙ
-1.278754	ИЗ ЭТОГО
-0.30103	ИЛИ ПОГИБШИХ
-0.30103	ИМЕННО УДАРА
-0.30103	ИНЖЕНЕРА ЛОСЯ
-0.30103	ИНСТРУМЕНТОВ И
-0.60206	ИНЫЕ ЗАКОЛОЧЕННЫЕ
-0.60206	ИНЫЕ РАЗБИТЫЕ
-0.30103	ИСКАТЕЛЕМ МАРС
-0.30103	ИСКОРКОЙ </s>
-0.30103	ИСТРЕБИТЬ </s>
-0.30103	ИХ ЗАРАБАТЫВАЮ
-1.20412	К ВЕЧЕРУ
-1.20412	К ДЕРЕВЬЯМ
-1.20412	К ДРУГОМУ
-1.20412	К ЗАПАДУ
-1.20412	К НЕВЕ
-1.20412	К РЕОСТАТАМ
-1.20412	К СЕБЕ
-1.20412	К СТОЛУ
-0.30103	КАЗАЛИСЬ НЕЖИЛЫМИ
-0.60206	КАЗАЛОСЬ ИЗ
-0.60206	КАЗАЛОСЬ УТОМЛЁННЫМ
-0.60206	КАК У
-0.60206	КАК ЩЕЛИ
-0.60206	КАКИЕ МОГЛИ
-0.60206	КАКИЕ ТО
-0.30103	КАМЕННЫХ ЯЩЕРИЦ
-0.60206	КАНАЛЫ МАРСА
-0.60206	КАНАЛЫ ОГИБАЛИ
-0.30103	КАРИЕ И
-0.30103	КАРТОШКУ РАЗЛОМИЛ
-0.30103	КАТЕЙ ЛЕЖАЩЕЙ
-0.30103	КАТИ ОН
-0.30103	КАТЮШИНОЙ ЛЮБВИ
-0.30103	КАТЯ </s>
-0.30103	КВАДРАТНЫЕ ОСВЕЩЁННЫЕ
-0.30103	КВАРТИРУ ГДЕ
-0.30103	КИВНУЛ ВО
-0.30103	КИДАЛИСЬ В
-0.30103	КИНУЛСЯ К
-0.30103	КИРПИЧНО КРАСНЫЙ
-0.30103	КИСЛОРОДНЫЕ БАКИ
-0.30103	КЛЁПКОЙ ПОВЕРХНОСТЬ
-0.30103	КЛАДУ НА
-0.30103	КЛУБКИ </s>
-0.30103	КЛУБЫ ТУЧ
-0.30103	КНИГАМИ ГОРЕЛА
-0.30103	КОБУРУ ВЫТАЩИЛ
-0.60206	КОГДА ПОШАТНЁТСЯ
-0.60206	КОГДА ТО
-0.30103	КОЖАНОГО СТЁГАНОГО
-0.30103	КОЖИ БЫЛА
-0.30103	КОЛЮЧУЮ СЕТЬ
-0.30103	КОМНАТЕ В
-0.30103	КОНЕЦ ВЕРЁВОЧКИ
-0.30103	КОНУСЕ </s>
-0.30103	КОНЦОМ ТРУБКИ
-0.30103	КОНЦУ ВЕРЁВОЧКИ
-0.30103	КОРЗИНКУ С
-0.30103	КОРИЧНЕВУЮ ПЫЛЬЦУ
-0.30103	КОРРЕСПОНДЕНТ АМЕРИКАНСКОЙ
-0.30103	КОРТОЧКАХ РАБОЧИЙ
-0.30103	КОРУ ОТКЛОНИЛ
-0.30103	КРАСНЫЙ СУРИК
-0.30103	КРЕСТОМ </s>
-0.30103	КРИКНУТЬ ЛОСЬ
-0.30103	КРОВЬ В
-0.30103	КРУГЛАЯ СПИРАЛЬ
-0.30103	КРУГЛОЕ ОТВЕРСТИЕ
-0.60206	КТО ТАМ
-0.60206	КТО ТО
-0.30103	КУПОЛА </s>
-0.30103	КУЧЕ ПЕСКУ
-0.30103	КУЧКИ ЛЕЖАЛИ
-0.30103	КУЩИ ДЕРЕВЬЕВ
-0.30103	ЛЁГКИМИ ФЕРМАМИ
-0.30103	ЛАМПОЧКА В
-0.30103	ЛАПЧАТОЙ ЗАРОСЛИ
-0.60206	ЛЕГКО ВОЗДУХ
-0.60206	ЛЕГКО ХОТЯ
-0.30103	ЛЕДЯНУЮ РАВНИНУ
-0.30103	ЛЕЖАВШИЙ НА
-0.30103	ЛЕЖАЛИ НА
-0.30103	ЛЕЖАЩЕЙ В
-0.30103	ЛЕНИВЫЕ СЕРО
-0.30103	ЛЕСЕНКУ ТЕЛЕСКОПА
-0.60206	ЛЕСОВ ПОБЛЕСКИВАЛА
-0.60206	ЛЕСОВ РАБОТАЮ
-0.90309	ЛЕТ МЕНЯ
-0.90309	ЛЕТ МОЙ
-0.90309	ЛЕТ ПУТЕШЕСТВИЕ
-0.90309	ЛЕТ САМ
-0.30103	ЛЕТЕЛ НА
-0.30103	ЛЕТЕЛА НЕ
-0.30103	ЛЕТЕТЬ ИЗ
-0.30103	ЛИ МОЖНО
-0.60206	ЛИНИЙ ВОТ
-0.60206	ЛИНИЙ ТОЧЕК
-0.30103	ЛИЦО ЕГО
-0.60206	ЛОБ В
-0.60206	ЛОБ СМОРЩИЛСЯ
-0.30103	ЛОВКИМ И
-1.230449	ЛОСЬ ВКРАТЦЕ
-1.230449	ЛОСЬ ЖАДНО
-0.9294189	ЛОСЬ И
-1.230449	ЛОСЬ КИНУЛСЯ
-1.230449	ЛОСЬ ПОДАВАЯ
-1.230449	ЛОСЬ ПОКАЗАЛ
-1.230449	ЛОСЬ С
-1.230449	ЛОСЬ ЧУВСТВОВАЛ
-0.30103	ЛОСЯ РАБОЧИЙ
-0.30103	ЛУПИТЬ ВАРЁНУЮ
-0.30103	ЛУЧ СОЛНЦА
-0.30103	ЛУЧИ </s>
-0.30103	ЛЬДЫ </s>
-0.30103	ЛЮБВИ </s>
-0.30103	ЛЮДЕЙ ГЛЯДЕЛИ
-0.30103	ЛЮКА </s>
-0.30103	МАГНИТНЫХ ПОЛЯХ
-0.30103	МАЛЕНЬКИЙ МАЛЬЧИК
-0.30103	МАЛО ТОЛКУ
-0.60206	МАЛЬЧИК В
-0.60206	МАЛЬЧИК ВОРОНА
-0.7781513	МАРС БУДЕТ
-0.7781513	МАРС И
-0.7781513	МАРС ПОДНЯВШИЙСЯ
-0.30103	МАРСА </s>
-0.30103	МАРСЕ ПРИГОЖУСЬ
-0.30103	МАССИВНОЙ СТАЛИ
-0.30103	МАТЕРИК ЛЕЖАВШИЙ
-0.30103	МАТЕРЬЮ ПОМЕРЛИ
-0.30103	МАХНОВЩИНА ЭТА
-0.30103	МАША ЖИЛИ
-0.30103	МАШИНОЙ ОН
-0.30103	МЕДЛЕННО ТЕПЕРЬ
-0.30103	МЕДНЫЕ ДЕНЬГИ
-0.30103	МЕЖДУ ЗУБАМИ
-0.30103	МЕЖДУЗВЁЗДНОМ ПРОСТРАНСТВЕ
-0.30103	МЕНЕЕ ВОСЬМИ
-0.30103	МЕНЯ НИ
-0.30103	МЕНЯЮЩИЕСЯ ГЕОМЕТРИЧЕСКИ
-0.30103	МЕТАЛЛИЧЕСКАЯ С
-0.60206	МЕТРОВ В
-0.60206	МЕТРОВ ВЫСОТЫ
-0.30103	МЕХАНИЗМ ДВИЖЕНИЯ
-0.30103	МЕХАНИЗМА ЭТО
-0.30103	МИМО УВИДЕЛ
-0.30103	МИНУЛИ ТЁМНЫЙ
-0.30103	МИНУТУ КАЗАЛОСЬ
-0.30103	МИРИАДЫ ОСТЫВАЮЩИХ
-0.30103	МИРОВ </s>
-0.30103	МЛАДЕНЦАМИ </s>
-0.30103	МНОГОУГОЛЬНУЮ ВЫСОКУЮ
-0.30103	МНОГОЭТАЖНЫХ ДОМОВ
-0.30103	МОЁ БЕЗНАДЁЖНОЕ
-0.30103	МОГЛА УЛЕТЕТЬ
-0.60206	МОГЛИ БЫТЬ
-0.60206	МОГЛИ ИСТРЕБИТЬ
-0.30103	МОЖЕТ ОТ
-0.30103	МОЖЕТЕ УЧЕСТЬ
-0.60206	МОЖНО БЫЛО
-0.60206	МОЖНО ВИДЕТЬ
-0.60206	МОЙ КАКИЕ
-0.60206	МОЙ ОКОЧЕНЕЛЫЙ
-0.30103	МОЛОДУЮ ЖЕНЩИНУ
-0.30103	МОЛЧАНИИ ТЕПЕРЬ
-0.30103	МОНЕТНУЮ УЛИЦУ
-0.30103	МОРЯ </s>
-0.30103	МОСКВЫ В
-0.30103	МУЖЕСТВОМ СКАЙЛС
-0.30103	МУЖИКАМ МАХНОВЩИНА
-0.30103	МУЧИТЕЛЬНО </s>
-0.60206	МЫ ВЁРСТ
-0.60206	МЫ ВТЯНУЛИ
-0.30103	МЫШЬ ПОНЕМНОГУ
-0.30103	МЯГКОЙ И
-0.30103	НЁМ БЫЛА
-1.690196	НА БОЛЬШУЮ
-1.690196	НА ВЕСЬ
-1.690196	НА ВОПРОС
-1.690196	НА ВСЕ
-1.690196	НА ГЛАЗ
-1.690196	НА ЗАВТРА
-1.690196	НА ЗАПАД
-1.690196	НА ЗЕМЛЮ
-1.690196	НА КАМЕННЫХ
-1.690196	НА КВАДРАТНЫЕ
-1.690196	НА КВАРТИРУ
-1.690196	НА КОРТОЧКАХ
-1.690196	НА КУЧЕ
-1.690196	НА ЛЕСЕНКУ
-1.389166	НА МАРС
-1.690196	НА МАРСЕ
-1.690196	НА МЕДНЫЕ
-1.690196	НА НЕБОЛЬШОЙ
-1.690196	НА НИЗКОЕ
-1.690196	НА НИХ
-1.690196	НА ПОРОГЕ
-1.690196	НА УЛИЦУ
-1.690196	НА ЧАХЛОЙ
-1.690196	НА ЭТОМ
-0.30103	НАБЕРЕЖНОЙ БЕЖАЛИ
-0.30103	НАБЕРЕЖНУЮ </s>
-0.30103	НАБЛЮДЕНИЯ И
-0.30103	НАГНУЛСЯ И
-1.079181	НАД ГОЛОВОЙ
-1.079181	НАД КАТЕЙ
-1.079181	НАД ПЕТЕРБУРГОМ
-1.079181	НАД СТОЛОМ
-1.079181	НАД ТУСКЛОЙ
-1.079181	НАД ЭТОЙ
-0.30103	НАДОЕДАТЬ </s>
-0.30103	НАДОЕЛО МАЛО
-0.30103	НАЗАД УМЕРЛА
-0.30103	НАКИНУЛ ПАЛЬТО
-0.30103	НАПРАВЛЕНИЮ К
-0.30103	НАХОДИЛИСЬ АППАРАТЫ
-0.30103	НАЧАЛ ЛУПИТЬ
-0.30103	НАШЁЛ ИСКАТЕЛЕМ
-1.20412	НЕ БОЛЕЕ
-1.20412	НЕ БЬЁТСЯ
-1.20412	НЕ ВЫГЛЯДЫВАЛА
-1.20412	НЕ МЕНЕЕ
-1.20412	НЕ МОГЛА
-1.20412	НЕ МОГЛИ
-1.20412	НЕ НОЧЕВАЛ
-1.20412	НЕ ПОЙМУ
-0.30103	НЕЁ СКВОЗЬ
-0.30103	НЕБОЛЬШАЯ ДВЕРЦА
-0.30103	НЕБОЛЬШОЙ ЯСНЫЙ
-0.30103	НЕВЕ ШАГАЛ
-0.30103	НЕДОЛГО ЖДАТЬ
-0.30103	НЕЖИЛЫМИ НИ
-0.30103	НЕЙ ВЫТЯГИВАЯ
-0.30103	НЕМУ КОНЦОМ
-0.30103	НЕОБЫКНОВЕННОГО СОБЫТИЯ
-0.30103	НЕОБЫЧАЙНО ЛЕГКО
-0.30103	НЕПОСТИГАЕМЫЕ КАНАЛЫ
-0.30103	НЕРОЖДЁННЫХ ИЛИ
-0.7781513	НЕСКОЛЬКО ЛЕТ
-0.7781513	НЕСКОЛЬКО ЛИНИЙ
-0.7781513	НЕСКОЛЬКО РАЗ
-0.30103	НЕШИРОКИЕ КАНАЛЫ
-0.7781513	НИ ОДНА
-0.7781513	НИ ПУЛЯ
-0.7781513	НИ ШТЫК
-0.30103	НИЗКОЕ СОЛНЦЕ
-0.30103	НИКОГДА НЕ
-0.60206	НИХ </s>
-0.60206	НИХ БЫЛА
-0.60206	НО БОЛЕЕ
-0.60206	НО ДЫШАЛОСЬ
-0.30103	НОГ ВЫБЕГАЛИ
-0.60206	НОГИ </s>
-0.60206	НОГИ И
-0.30103	НОГОЙ ИЗ
-0.30103	НОС СТАЛА
-0.30103	НОСЯТСЯ ОСКОЛКИ
-0.30103	НОЧЕВАЛ </s>
-0.30103	НУ ОЧЕНЬ
-0.30103	О ВОЗМОЖНОМ
-0.30103	ОБ УСЛОВИЯХ
-0.30103	ОБЕСПЕЧИТЬ СЕМЬЮ
-0.60206	ОБЛАКА НАД
-0.60206	ОБЛАКА ШИРОКИЕ
-0.30103	ОБМОТКАХ </s>
-0.30103	ОБОЗ ОТОБЬЁМ
-0.30103	ОБСЫПАВШИЕСЯ НЕШИРОКИЕ
-0.30103	ОБЩИХ ЧЕРТАХ
-0.30103	ОБЪЯВЛЕНИЕ КТО
-0.60206	ОБЪЯВЛЕНИЕМ БОСУЮ
-0.60206	ОБЪЯВЛЕНИЕМ ОСТАНОВИЛСЯ
-0.30103	ОГИБАЛИ ВЫСОХШИЕ
-0.30103	ОГЛЯНУЛ СОЛДАТА
-0.30103	ОГНЕННЫЕ ОКЕАНЫ
-0.30103	ОГНЯ ВСЕЛЕННОЙ
-0.30103	ОГОЛЁННУЮ ЛЕДЯНУЮ
-0.30103	ОГРОМНОМ ТЕПЕРЬ
-0.30103	ОДЕЖДЕ СОЛДАТ
-0.60206	ОДИН ВО
-0.60206	ОДИН ИЗ
-0.30103	ОДИНОЧЕСТВО РАСПРОСТЁРТОЕ
-0.30103	ОДНА ГОЛОВА
-0.30103	ОДНИ И
-0.30103	ОДНОЙ КОМНАТЕ
-0.30103	ОЖИДАЛ ВСЕГО
-0.30103	ОЖИДАЮЩЕЙ НЕОБЫКНОВЕННОГО
-0.30103	ОЖИЛА ПОДНЯЛА
-0.30103	ОКАЗАЛСЯ ЛОВКИМ
-0.30103	ОКЕАНЕ </s>
-0.30103	ОКЕАНЫ </s>
-0.60206	ОКНА МНОГОЭТАЖНЫХ
-0.60206	ОКНА САРАЯ
-0.30103	ОКОН </s>
-0.30103	ОКОЧЕНЕЛЫЙ ТРУП
-0.30103	ОКРУЖАЛА ДВОЙНАЯ
-0.30103	ОКУНУЛ В
-1.255273	ОН ДЕРЖАЛ
-1.255273	ОН КТО
-1.255273	ОН НИКОГДА
-1.255273	ОН ОТКРЫЛ
-1.255273	ОН САМ
-1.255273	ОН СЕЛ
-1.255273	ОН ТКНУЛ
-1.255273	ОН УПАЛ
-1.255273	ОН ЦЕЛУЕТ
-0.60206	ОНА ЗАВЕЛА
-0.60206	ОНА ЧИТАЛА
-0.90309	ОНИ МИНУЛИ
-0.90309	ОНИ ПАСЛИСЬ
-0.90309	ОНИ СВОДЯЩИЕ
-0.90309	ОНИ ТЯНУЛИСЬ
-0.30103	ОПРЕДЕЛИЛ ЧТО
-0.30103	ОПРЯТНОМ ПЛАТЬЕ
-0.30103	ОПУСКАЛСЯ САДИМСЯ
-0.30103	ОРАНЖЕВЫЕ С
-0.30103	ОСВЕЩЁН НАД
-0.30103	ОСВЕЩЁННАЯ ВНУТРЕННОСТЬ
-0.30103	ОСВЕЩЁННЫЕ ОКНА
-0.30103	ОСЕДАЮТ НА
-0.30103	ОСЕННИЙ ВЕТЕР
-0.30103	ОСКОЛКИ ПЛАНЕТ
-0.30103	ОСЛЕПИТЕЛЬНЫЙ ЛУЧ
-0.30103	ОСТАНОВИЛСЯ РОСЛЫЙ
-0.30103	ОСТЫВАЮЩИХ ЗВЁЗД
-1.041393	ОТ АФРИКИ
-1.041393	ОТ БЕРЕГА
-1.041393	ОТ СКАЛ
-0.7403627	ОТ ЭТОГО
-1.041393	ОТ ЭТОЙ
-0.30103	ОТВЕРСТИЕ ЛЮКА
-0.60206	ОТВЕРСТИЯ ОКОН
-0.60206	ОТВЕРСТИЯ СВОДЧАТОГО
-0.30103	ОТЕЦ С
-0.30103	ОТКЛОНИЛ ПОЛЮСЫ
-0.30103	ОТКРЫЛ ДВЕРЬ
-0.30103	ОТОБЬЁМ И
-0.30103	ОТОРВАЛСЯ ОТ
-0.30103	ОТСЮДА БЫЛА
-0.30103	ОТЫСКАЛ ЖДАНОВСКУЮ
-0.30103	ОЧЕНЬ РАД
-0.30103	ПАДАЕМ </s>
-0.30103	ПАЛЬТО И
-0.30103	ПАСЛИСЬ ТАМ
-0.30103	ПАУК ПОБЕЖАЛ
-0.1760913	ПЕРЕД ОБЪЯВЛЕНИЕМ
-0.60206	ПЕРЕЛЁТ В
-0.60206	ПЕРЕЛЁТ ИЗ
-0.30103	ПЕРЕЛЁТА ПРЕДУПРЕДИЛ
-0.30103	ПЕРЕЛИВАЛСЯ ГОВОР
-0.30103	ПЕРЕПРЫГИВАЛИ ЧЕРЕЗ
-0.30103	ПЕРЕУЛКОВ БУБНИЛИ
-0.30103	ПЕСКУ ОДИН
-0.30103	ПЕТЕРБУРГА И
-0.30103	ПЕТЕРБУРГОМ И
-0.30103	ПЛАН ПЕТЕРБУРГА
-0.30103	ПЛАНЕТ НЕРОЖДЁННЫХ
-0.30103	ПЛАТЬЕ ОНА
-1.079181	ПО ГОРЕЛОМУ
-1.079181	ПО ДВЕСТИ
-1.079181	ПО НАПРАВЛЕНИЮ
-1.079181	ПО НЕМУ
-1.079181	ПО ОДЕЖДЕ
-1.079181	ПО ЩИКОЛОТКУ
-0.30103	ПОБЕЖАЛ ИЗ
-0.30103	ПОБЛЕСКИВАЛА МЕТАЛЛИЧЕСКАЯ
-0.30103	ПОВЕРХНОСТЬ СФЕРИЧЕСКОГО
-0.30103	ПОГИБ МАТЕРИК
-0.30103	ПОГИБШИХ МИРОВ
-0.30103	ПОГЛОЩЕНИЯ УГЛЕКИСЛОТЫ
-0.30103	ПОГЛЯДЫВАЛИ НА
-0.7781513	ПОД КРЕСТОМ
-0.7781513	ПОД НОГ
-0.7781513	ПОД ПРАХА
-0.30103	ПОДАВАЯ ЕМУ
-0.30103	ПОДВЁРТКИ </s>
-0.30103	ПОДНИМАЯ КОРИЧНЕВУЮ
-0.30103	ПОДНЯВШИЙСЯ УЖЕ
-0.30103	ПОДНЯВШИХСЯ С
-0.60206	ПОДНЯЛА НОС
-0.60206	ПОДНЯЛА С
-0.30103	ПОДУШКИ ДЛЯ
-0.30103	ПОДШТАНИКИ ПОДВЁРТКИ
-0.30103	ПОЙМУ ДО
-0.30103	ПОКАЗАЛ ГУСЕВУ
-0.30103	ПОКАЛЫВАЛО ГРУДЬ
-0.30103	ПОКАТИЛСЯ ПРОЛОМАННЫЙ
-0.30103	ПОЛГОДА ТОМУ
-0.30103	ПОЛОВИНКИ ВОРОТ
-0.30103	ПОЛОВИНОЙ МЕТРОВ
-0.30103	ПОЛОСЫ ЗАКАТА
-0.30103	ПОЛУКРУЖИЙ РАЗБРОСАНО
-0.30103	ПОЛЫЕ ПОДУШКИ
-0.30103	ПОЛЮСЫ </s>
-0.30103	ПОЛЯХ ЗЕМЛИ
-0.30103	ПОМЕРЛИ БРАТЬЯ
-0.30103	ПОНЕМНОГУ ОЖИЛА
-0.30103	ПОПАЛИ АЛЕКСЕЙ
-0.30103	ПОПЕРЕЧНИКЕ </s>
-0.30103	ПОР </s>
-0.30103	ПОРОГЕ СИДЕЛ
-0.30103	ПОСЛЕ СМЕРТИ
-0.30103	ПОСТОЯННО МЕНЯЮЩИЕСЯ
-0.30103	ПОСТРОЕН ИЗ
-0.30103	ПОТОМ ВЗОШЁЛ
-0.30103	ПОТУШЕНО И
-0.30103	ПОХОЖИЕ НА
-0.30103	ПОЧВЕ </s>
-0.30103	ПОШЁЛ ПО
-0.30103	ПОШАТНЁТСЯ ДАЖЕ
-0.30103	ПОШЛА ЧЕРЕЗ
-0.30103	ПОЭТОМУ Я
-0.30103	ПОЯСА В
-0.30103	ПРАВИЛЬНЫЕ НЕПОСТИГАЕМЫЕ
-0.30103	ПРАХА ПОКАТИЛСЯ
-0.30103	ПРАХУ ПЕРЕПРЫГИВАЛИ
-0.30103	ПРЕДЛОЖИЛ ОБЕСПЕЧИТЬ
-0.30103	ПРЕДУПРЕДИЛ О
-0.30103	ПРИБОРЫ ГУСЕВ
-0.30103	ПРИВЫЧНОЙ ХВАТКОЙ
-0.30103	ПРИВЯЗАНА ЗАНОГУ
-0.30103	ПРИГОЖУСЬ НУ
-0.30103	ПРИГОТОВЬ ЧИСТОЕ
-0.30103	ПРИКОЛОЧЕННОЕ ГВОЗДИКАМИ
-0.30103	ПРИНЦИП ДВИЖУЩЕГО
-0.30103	ПРИОТВОРЕНА НА
-0.30103	ПРИТЯГИВАЕМСЯ ПАДАЕМ
-0.30103	ПРИЩУРЯСЬ ОГЛЯНУЛ
-0.30103	ПРОВИЗИИ </s>
-0.30103	ПРОДУКТАМИ </s>
-0.30103	ПРОЛОМАННЫЙ ЧЕЛОВЕЧЕСКИЙ
-0.60206	ПРОНИКАЛ В
-0.60206	ПРОНИКАЛ СКВОЗЬ
-0.30103	ПРОРЕЗЫВАЛ ОБЛАКА
-0.60206	ПРОСТРАНСТВЕ НОСЯТСЯ
-0.60206	ПРОСТРАНСТВЕ ШЕСТЬ
-0.30103	ПРОТИВОПОЛОЖНЫЕ СТОРОНЫ
-0.30103	ПРОХОДЯ МИМО
-0.30103	ПРОХОЖИХ И
-0.30103	ПРУДИКИ </s>
-0.30103	ПРЯДЬ ВОЛНИСТЫХ
-0.30103	ПРЯМОЙ ОСЛЕПИТЕЛЬНЫЙ
-0.30103	ПУЛЯ НИ
-0.30103	ПУСТИВШЕЕ СКВОЗЬ
-0.30103	ПУСТЫЕ ДОМА
-0.30103	ПУСТЫННЫЕ УЛИЦЫ
-0.30103	ПУСТЫНЮ </s>
-0.30103	ПУСТЫРЬ НА
-0.30103	ПУТЕШЕСТВИЕ НА
-0.30103	ПХНУЛ НОГОЙ
-0.30103	ПЫЛЬЦУ И
-0.30103	РЁБРАМИ И
-0.30103	РАБОТАЮ ДАВНО
-0.60206	РАБОЧИЙ И
-0.60206	РАБОЧИЙ КИВНУЛ
-0.30103	РАВНИНА ТОГО
-0.30103	РАВНИНОЙ И
-0.30103	РАВНИНУ </s>
-0.30103	РАД СКАЗАЛ
-0.30103	РАЗ В
-0.30103	РАЗБИЛ ЗЕМНУЮ
-0.30103	РАЗБИТЫЕ ИНЫЕ
-0.30103	РАЗБРОСАНО К
-0.30103	РАЗВЕРНУЛ ПЛАН
-0.30103	РАЗГОВОРЫ В
-0.30103	РАЗЛОМИЛ ОКУНУЛ
-0.30103	РАЗМЕШИВАЛ В
-0.30103	РАЗНЫЕ РАЗГОВОРЫ
-0.30103	РАЗУМ ЕДИНСТВЕННЫЕ
-0.30103	РАКЕТА </s>
-0.30103	РАСКРЫТЫЕ ПОЛОВИНКИ
-0.30103	РАСПРОСТЁРТОЕ В
-0.30103	РАССКАЗАЛ ЕМУ
-0.30103	РАССТЕГНУЛ КОБУРУ
-0.30103	РАССЫПАЮЩЕЙ ПОЧВЕ
-0.30103	РЕВОЛЬВЕР ЭЙ
-0.30103	РЕВЯ И
-0.30103	РЕЗКИЕ ДЛИННЫЕ
-0.30103	РЕОСТАТАМ ПОПАЛИ
-0.30103	РИСКЕ </s>
-0.30103	РОМБАМИ ЖЁЛТОЙ
-0.30103	РОСКОШНОМ ОГРОМНОМ
-0.30103	РОСЛЫЙ ШИРОКОПЛЕЧИЙ
-0.30103	РУБАХЕ БЕЗ
-0.30103	РУБАШКЕ ГОРОШКОМ
-0.30103	РУБАШКИ ПОДШТАНИКИ
-0.30103	РУКЕ ОН
-0.30103	РУКУ ДО
-1.414973	С ВЕСЁЛЫМИ
-1.414973	С ДВЕНАДЦАТИ
-1.414973	С ЗЕЛЕНЬЮ
-1.414973	С ЗУБЧАТЫМ
-1.414973	С ИСКОРКОЙ
-1.414973	С МАТЕРЬЮ
-1.414973	С МОРЯ
-1.414973	С НАБЕРЕЖНОЙ
-1.414973	С ПОЛОВИНОЙ
-1.414973	С ТРОТУАРА
-1.414973	С ТРУДОМ
-1.414973	С УМА
-1.414973	С ЧАСТОЙ
-0.30103	САДИМСЯ УСПЕЛ
-0.60206	САМ ИХ
-0.60206	САМ ТЕПЕРЬ
-0.30103	САРАЙ ЕДВА
-0.1760913	САРАЯ </s>
-0.30103	СБИВАЛИСЬ В
-0.30103	СВЁРНУТАЯ В
-0.1760913	СВЕТ ПРОНИКАЛ
-0.30103	СВОДЧАТОГО КУПОЛА
-0.30103	СВОДЯЩИЕ С
-0.30103	СЕБЕ НА
-0.30103	СЕЙЧАС ЖЕ
-0.30103	СЕЛ К
-0.30103	СЕМЕНА ОСЕДАЮТ
-0.60206	СЕМЬ ЛЕТ
-0.60206	СЕМЬ ЧАСОВ
-0.30103	СЕМЬЮ И
-0.30103	СЕРДЦЕ БЬЁТСЯ
-0.30103	СЕРО КАРИЕ
-0.60206	СЕТЬ ЛИНИЙ
-0.60206	СЕТЬ СТАЛ
-0.60206	СИДЕЛ МАЛЕНЬКИЙ
-0.60206	СИДЕЛ НА
-0.30103	СИТЦЕВОМ ОПРЯТНОМ
-0.30103	СИХ ПОР
-0.30103	СКАЗАЛ ЛОСЬ
-0.60206	СКАЙЛС ОЖИДАЛ
-0.60206	СКАЙЛС ПРОХОДЯ
-0.60206	СКАЙЛЬС ОПРЕДЕЛИЛ
-0.60206	СКАЙЛЬС ТОЖЕ
-0.30103	СКАЙЛЬСА ЗДЕСЬ
-0.30103	СКАЛ ОНИ
-0.30103	СКВЕРЕ ВИДИМО
-1.079181	СКВОЗЬ БАЛКИ
-1.079181	СКВОЗЬ ЗАБРАННЫЕ
-1.079181	СКВОЗЬ КРУГЛОЕ
-1.079181	СКВОЗЬ ОБЛАКА
-1.079181	СКВОЗЬ РАСКРЫТЫЕ
-1.079181	СКВОЗЬ СТЁКЛА
-0.30103	СКОЛЬЗИЛИ КИДАЛИСЬ
-0.30103	СЛЕДЫ БУРЬ
-0.30103	СЛОЖНО ЧЕМ
-0.30103	СМЕНЫ РУБАШКИ
-0.30103	СМЕРТИ КАТИ
-0.30103	СМЕТЛИВЫМ ЧЕЛОВЕКОМ
-0.30103	СМОРЩИЛСЯ </s>
-0.30103	СНАЧАЛА ДУМАЛИ
-0.30103	СО СПОКОЙНЫМ
-0.30103	СОБЫТИЯ </s>
-0.30103	СОЛДАТ В
-0.30103	СОЛДАТА ВСПЫХНУЛ
-0.30103	СОЛНЦА </s>
-0.30103	СОЛНЦЕ ПУСТИВШЕЕ
-0.30103	СОЛЬ НА
-0.30103	СОТРЯСАЯСЬ МЕДЛЕННО
-0.30103	СПАЛЬНЮ ГДЕ
-0.30103	СПИРАЛЬ СВЁРНУТАЯ
-0.30103	СПОКОЙНЫМ МУЖЕСТВОМ
-0.30103	СТЁГАНОГО ЯЙЦА
-0.30103	СТЁГАНОЙ РОМБАМИ
-0.30103	СТЁКЛА ГЛАЗКОВ
-0.30103	СТАЛ БИТЬСЯ
-0.60206	СТАЛА НАДОЕДАТЬ
-0.60206	СТАЛА ШЕВЕЛИТЬ
-0.60206	СТАЛИ ВНУТРИ
-0.60206	СТАЛИ КРУГЛАЯ
-0.30103	СТАРАЯ ВЗЛОХМАЧЕННАЯ
-0.30103	СТЕКЛОМ ОТВЕРСТИЯ
-0.30103	СТЕНАХ УЗКИЕ
-0.30103	СТОКГОЛЬМЕ </s>
-0.30103	СТОЛОМ ЗАВАЛЕННОМ
-0.30103	СТОЛУ НАЧАЛ
-0.60206	СТОРОНУ КАКИЕ
-0.60206	СТОРОНУ ЛЕСОВ
-0.30103	СТОРОНЫ БУФЕР
-0.30103	СТОЯВШУЮ ПЕРЕД
-0.30103	СТРАННЫЕ ВЗГЛЯДЫ
-0.30103	СТРОК ЧЕК
-0.30103	СТУЧАЛА КРОВЬ
-0.30103	СУМЕРЕК ПЕРЕЛИВАЛСЯ
-0.30103	СУРИК </s>
-0.30103	СУХ </s>
-0.30103	СФЕРИЧЕСКОГО ТЕЛА
-0.30103	ТЁМНЫЙ ВЕСТИБЮЛЬ
-0.30103	ТЁПЛЫЙ ШАРИК
-0.60206	ТАК ВАШУ
-0.60206	ТАК ЖЕ
-0.30103	ТАКОВ В
-0.60206	ТАМ ГДЕ
-0.60206	ТАМ У
-0.30103	ТЕ ЖЕ
-0.30103	ТЕЛА </s>
-0.30103	ТЕЛЕСКОПА НАШЁЛ
-0.30103	ТЕНИ ОТ
-1.146128	ТЕПЕРЬ ЗАБРОШЕННОМ
-1.146128	ТЕПЕРЬ ЛЕТЕЛ
-1.146128	ТЕПЕРЬ ЛЬДЫ
-1.146128	ТЕПЕРЬ ОПУСКАЛСЯ
-1.146128	ТЕПЕРЬ ПРИЩУРЯСЬ
-1.146128	ТЕПЕРЬ ТЫСЯЧИ
-1.146128	ТЕПЕРЬ УЖЕ
-0.30103	ТКНУЛ ТРУБКОЙ
-0.30103	ТКНУЛСЯ В
-0.7781513	ТО ЗОВЁТ
-0.7781513	ТО РОСКОШНОМ
-0.7781513	ТО ЩЕТИНИСТЫЕ
-0.30103	ТОГО ЖЕ
-0.30103	ТОЖЕ ТЕПЕРЬ
-0.30103	ТОЙ ЖЕНЩИНЫ
-0.30103	ТОЛКУ ДА
-0.30103	ТОЛПЕ ОЖИДАЮЩЕЙ
-0.30103	ТОЛЬКО КРИКНУТЬ
-0.30103	ТОМУ НАЗАД
-0.30103	ТОНОК И
-0.30103	ТОЧЕК И
-0.30103	ТРАВА ОНИ
-0.30103	ТРАВЕ ПОГЛЯДЫВАЛИ
-0.30103	ТРЕПЕЩЕТ МУЧИТЕЛЬНО
-0.30103	ТРОТУАРА КОРЗИНКУ
-0.30103	ТРУБКИ ОТЫСКАЛ
-0.30103	ТРУБКОЙ В
-0.30103	ТРУДОМ ОТОРВАЛСЯ
-0.30103	ТРУП ВЛЕТИТ
-0.30103	ТУГОПЛАВКОЙ СТАЛИ
-0.30103	ТУСКЛОГО ЦВЕТА
-0.30103	ТУСКЛОЙ РАВНИНОЙ
-0.30103	ТУЧ ПОДНЯВШИХСЯ
-0.30103	ТЫСЯЧИ ЛЮДЕЙ
-0.30103	ТЫСЯЧУ ЛЕТ
-0.30103	ТЬМЕ </s>
-0.30103	ТЯНУЛИСЬ ЧЕРЕЗ
-0.90309	У АППАРАТ
-0.90309	У НИХ
-0.90309	У ТОЙ
-0.90309	У ЭТОЙ
-0.30103	УБИТЫ ЗЕМЛЯ
-0.30103	УВЕРЕННО И
-0.30103	УВИДЕЛ СТОЯВШУЮ
-0.30103	УГЛЕКИСЛОТЫ ПОЛЫЕ
-0.30103	УДАРА ПОГИБ
-0.60206	УЖ ЗА
-0.60206	УЖ И
-0.90309	УЖЕ ДАВНО
-0.90309	УЖЕ НАД
-0.90309	УЖЕ НЕ
-0.90309	УЖЕ ЯСНО
-0.30103	УЗКИЕ КАК
-0.30103	УКРЕПЛЁН РЁБРАМИ
-0.30103	УЛЕТЕТЬ ВЕСЁЛАЯ
-0.39794	УЛИЦУ </s>
-0.69897	УЛИЦУ К
-0.30103	УЛИЦЫ СТРАННЫЕ
-0.30103	УМА АСТРОНОМОВ
-0.30103	УМЕРЛА КАТЯ
-0.30103	УМЫЛАСЬ </s>
-0.30103	УПАЛ РАЗБИЛ
-0.30103	УСАМИ УМЫЛАСЬ
-0.30103	УСЛОВИЯХ ПЕРЕЛЁТА
-0.30103	УСПЕЛ ТОЛЬКО
-0.30103	УТОМЛЁННЫМ ЛОБ
-0.30103	УХО ПОДНЯЛА
-0.30103	УЧЕСТЬ В
-0.30103	УЧИЛСЯ НА
-0.30103	ФЕЛЬЕТОНОВ ПО
-0.30103	ФЕРМАМИ </s>
-0.30103	ХВАТКОЙ РАССТЕГНУЛ
-0.30103	ХОЛМИСТАЯ РАВНИНА
-0.30103	ХОРОШО УКРЕПЛЁН
-0.30103	ХОТЯ НОГИ
-0.30103	ХРЕБТОМ </s>
-0.30103	ЦВЕТА </s>
-0.30103	ЦЕЛУЕТ ЕЁ
-0.30103	ЦЕПИ НА
-0.30103	ЧЁРНОЙ БЕЗДНЫ
-0.30103	ЧАСОВ </s>
-0.30103	ЧАСТОЙ КЛЁПКОЙ
-0.30103	ЧАХЛОЙ ТРАВЕ
-0.60206	ЧАЩЕ УЖЕ
-0.60206	ЧАЩЕ ЧАЩЕ
-0.30103	ЧЕК МОЖЕТЕ
-0.30103	ЧЕЛОВЕК БЕЗ
-0.30103	ЧЕЛОВЕКОМ </s>
-0.30103	ЧЕЛОВЕЧЕСКИЙ ЧЕРЕП
-0.30103	ЧЕМ ПЕРЕЛЁТ
-1.079181	ЧЕРЕЗ НЕСКОЛЬКО
-1.079181	ЧЕРЕЗ ОБСЫПАВШИЕСЯ
-1.079181	ЧЕРЕЗ ОГОЛЁННУЮ
-1.079181	ЧЕРЕЗ ПУСТЫРЬ
-1.079181	ЧЕРЕЗ ТЫСЯЧУ
-1.079181	ЧЕРЕЗ УЛИЦУ
-0.30103	ЧЕРЕП В
-0.30103	ЧЕРТАХ БЫЛ
-0.30103	ЧЕРТЕЖАМИ И
-0.30103	ЧИСТОЕ ДВЕ
-0.30103	ЧИТАЛА ШЕВЕЛЯ
-0.7781513	ЧТО У
-0.7781513	ЧТО ЭТО
-0.7781513	ЧТО ЯЙЦЕОБРАЗНЫЙ
-0.30103	ЧУВСТВОВАЛ СЕРДЦЕ
-0.30103	ЧУДОВИЩЕ </s>
-0.30103	ШАГАЛ УВЕРЕННО
-0.30103	ШАПКИ ПО
-0.30103	ШАРИК </s>
-0.30103	ШЕВЕЛИТЬ УСАМИ
-0.30103	ШЕВЕЛЯ ГУБАМИ
-0.30103	ШЕСТИ МЕТРОВ
-0.60206	ШЕСТЬ СЕМЬ
-0.60206	ШЕСТЬ ФЕЛЬЕТОНОВ
-0.30103	ШИРОКИЕ ЛУЧИ
-0.30103	ШИРОКО </s>
-0.30103	ШИРОКОПЛЕЧИЙ ЧЕЛОВЕК
-0.7781513	ШЛИ ПО
-0.7781513	ШЛИ РАЗНЫЕ
-0.7781513	ШЛИ С
-0.30103	ШТАНОВ </s>
-0.30103	ШТЫК НЕ
-0.30103	ЩЁКИ В
-0.30103	ЩЕЛИ ГЛУБОКИЕ
-0.30103	ЩЕТИНИСТЫЕ КЛУБКИ
-0.30103	ЩИКОЛОТКУ В
-0.30103	ЭДАК </s>
-0.30103	ЭЙ ЗАКРИЧАЛ
-0.30103	ЭКВАТОРИАЛЬНОЙ ГРУППЫ
-0.30103	ЭЛЕКТРИЧЕСКАЯ ЛАМПОЧКА
-0.30103	ЭЛЕКТРИЧЕСТВО БЫЛО
-0.30103	ЭТА СТАЛА
-0.7781513	ЭТО БЫЛА
-0.7781513	ЭТО ВРЕМЯ
-0.7781513	ЭТО СЛЕДЫ
-0.90309	ЭТОГО ВТОРОГО
-0.90309	ЭТОГО ГОРОДА
-0.90309	ЭТОГО ЗРЕЛИЩА
-0.90309	ЭТОГО ИМЕННО
-0.7781513	ЭТОЙ БАРЫШНИ
-0.7781513	ЭТОЙ МАШИНОЙ
-0.7781513	ЭТОЙ ЭКВАТОРИАЛЬНОЙ
-0.60206	ЭТОМ БЕЗУМНОМ
-0.60206	ЭТОМ ЧУДОВИЩЕ
-0.60206	ЭТУ МИНУТУ
-0.60206	ЭТУ СЕТЬ
-0.60206	Я ВАМ
-0.60206	Я КЛАДУ
-0.30103	ЯЙЦА НАХОДИЛИСЬ
-0.30103	ЯЙЦЕОБРАЗНЫЙ АППАРАТ
-0.60206	ЯРКО ОРАНЖЕВЫЕ
-0.60206	ЯРКО ОСВЕЩЁННАЯ
-0.30103	ЯСНО МОЖНО
-0.30103	ЯСНЫЙ ТЁПЛЫЙ
-0.30103	ЯЩЕРИЦ ЯРКО
-0.30103	ЯЩИКИ ДЛЯ

\end\
